
#ifndef PLAIN_CPP_CLASSIFIER_H
#define PLAIN_CPP_CLASSIFIER_H
#include <math.h>

class PlainCppClassifier {
public:
    int predict(float* x) {
        float layer1_out[128] = {0};
        for (int i = 0; i < 128; i++) {
            for (int j = 0; j < 784; j++) layer1_out[i] += x[j] * weights1[j][i];
            layer1_out[i] += biases1[i];
            if (layer1_out[i] < 0) layer1_out[i] = 0; // ReLU
        }
        float layer2_out[64] = {0};
        for (int i = 0; i < 64; i++) {
            for (int j = 0; j < 128; j++) layer2_out[i] += layer1_out[j] * weights2[j][i];
            layer2_out[i] += biases2[i];
            if (layer2_out[i] < 0) layer2_out[i] = 0; // ReLU
        }
        float output_layer[10] = {0};
        for (int i = 0; i < 10; i++) {
            for (int j = 0; j < 64; j++) output_layer[i] += layer2_out[j] * weights3[j][i];
            output_layer[i] += biases3[i];
        }
        float exp_sum = 0.0;
        for (int i = 0; i < 10; i++) {
            output_layer[i] = exp(output_layer[i]);
            exp_sum += output_layer[i];
        }
        for (int i = 0; i < 10; i++) output_layer[i] /= exp_sum;
        int max_index = 0; float max_value = -1.0;
        for (int i = 0; i < 10; i++) {
            if (output_layer[i] > max_value) {
                max_value = output_layer[i]; max_index = i;
            }
        }
        return max_index;
    }
private:
    static const float weights1[784][128];
    static const float biases1[128];
    static const float weights2[128][64];
    static const float biases2[64];
    static const float weights3[64][10];
    static const float biases3[10];
};

const float PlainCppClassifier::weights1[784][128] = {
    {0.067945, 0.082959, 0.094733, -0.071291, -0.067900, -0.033794, -0.024010, -0.003828, 0.045958, 0.013042, 0.099268, 0.048570, 0.053288, -0.029702, 0.001835, 0.018229, 0.053167, -0.024098, -0.023616, -0.047590, -0.067513, -0.104605, 0.016315, 0.057706, -0.015093, -0.013517, -0.067778, 0.026415, -0.049361, 0.071311, 0.033697, 0.018258, 0.047616, 0.028557, -0.029186, 0.047132, -0.107790, 0.000182, 0.017536, 0.056922, -0.020002, 0.012203, -0.001224, -0.022513, -0.081483, -0.042447, 0.000633, -0.087304, -0.107978, -0.063630, -0.028841, -0.018613, 0.044630, 0.025160, 0.010796, 0.048699, 0.052759, -0.034753, -0.011367, 0.047394, 0.000215, -0.049533, -0.050198, -0.004615, 0.093107, 0.021708, -0.013860, -0.005657, -0.010298, 0.005891, -0.019987, 0.029910, 0.111585, 0.007599, 0.109560, -0.104133, 0.011820, -0.084144, 0.013331, 0.040603, -0.048947, 0.059433, -0.119113, 0.004367, -0.050251, 0.040929, -0.005160, -0.074232, 0.065430, -0.020074, -0.055953, -0.047323, 0.129265, 0.016338, -0.070207, 0.038755, 0.021989, -0.002830, 0.024586, -0.069991, -0.044329, -0.008102, -0.008453, -0.026911, 0.066674, -0.013520, -0.000719, 0.020704, -0.012219, -0.074537, 0.035656, -0.044020, -0.035748, 0.080104, -0.061984, -0.066739, -0.095086, 0.107359, 0.056126, 0.122190, 0.099605, -0.095469, 0.017908, -0.107357, 0.002487, 0.007024, -0.064787, 0.048514},
    {0.018658, 0.044688, 0.093515, -0.055372, 0.074474, 0.048736, -0.011853, 0.042837, -0.012146, -0.094707, 0.014577, -0.044700, -0.065025, 0.033031, 0.058504, -0.039004, -0.009036, -0.002018, 0.074761, -0.090035, 0.024912, 0.062333, 0.045612, -0.006539, -0.017358, -0.029135, 0.025801, -0.061846, -0.044775, 0.025532, -0.059446, -0.072852, -0.044700, -0.000133, -0.004752, -0.048565, -0.073707, 0.071466, 0.017353, 0.057252, -0.071214, 0.026814, -0.046862, 0.052718, -0.036886, -0.076905, 0.024111, 0.032455, -0.078524, 0.006377, 0.020228, 0.051226, 0.009516, -0.005887, -0.066900, -0.058250, -0.021180, -0.067657, 0.011597, -0.039759, -0.005268, 0.045041, -0.035056, 0.023825, 0.070641, -0.007540, 0.033875, -0.075480, -0.048117, 0.002223, 0.066018, -0.018186, -0.020094, 0.045017, -0.059155, 0.000626, 0.037297, -0.003771, 0.024446, 0.070594, 0.038791, -0.038540, -0.005765, 0.049122, -0.005080, -0.016350, 0.073483, -0.035826, 0.029711, 0.013084, -0.046608, 0.020225, -0.015485, 0.026197, 0.043294, 0.015447, 0.016265, -0.004852, 0.075617, -0.021041, 0.092395, 0.026184, -0.011207, 0.063740, -0.024726, -0.046609, -0.015768, 0.023345, 0.003785, -0.041153, 0.071523, -0.002852, 0.077707, -0.035691, 0.051801, -0.045099, 0.067474, -0.039727, 0.061321, -0.023045, -0.069866, 0.023010, -0.106141, -0.004423, -0.057873, 0.097652, -0.038309, -0.066196},
    {-0.156086, 0.129882, -0.014417, 0.063561, -0.072682, 0.090722, -0.078644, -0.065764, 0.052712, -0.055388, -0.107741, 0.087203, -0.099401, -0.066011, 0.076740, -0.027719, -0.022703, 0.106865, -0.059429, -0.108212, -0.101906, 0.136763, 0.006259, 0.036340, 0.169444, -0.176195, 0.034489, -0.116106, -0.001732, -0.059897, -0.020872, -0.101889, -0.068489, 0.132627, 0.129888, -0.063218, -0.116313, -0.069127, 0.067939, -0.032089, -0.020765, -0.087952, 0.018208, -0.145563, -0.052475, 0.007493, 0.029622, 0.066430, -0.121355, -0.084730, -0.035000, 0.168192, 0.019577, -0.020107, -0.106820, 0.128546, 0.107276, 0.068299, 0.090309, 0.007317, -0.002037, 0.065810, -0.070723, 0.056624, -0.100282, 0.069157, 0.172064, -0.002193, 0.129698, 0.186652, -0.011160, 0.261625, -0.027129, 0.178795, -0.104993, -0.003831, -0.038811, 0.074564, -0.017234, -0.042583, -0.047557, -0.102727, 0.100429, -0.071352, 0.008512, -0.169679, -0.055123, 0.054544, -0.037789, 0.061975, -0.076870, 0.066705, -0.073749, 0.016538, 0.012433, 0.072908, 0.001331, -0.036721, 0.117511, -0.026708, 0.166254, -0.083234, 0.081538, 0.170791, -0.107139, 0.012349, 0.116684, -0.049335, 0.028217, 0.126457, 0.107402, -0.019594, 0.005455, 0.023302, -0.146756, 0.040388, 0.088640, -0.123725, 0.119184, -0.111973, -0.148092, -0.202496, -0.100227, 0.195992, -0.096510, 0.238738, -0.072907, -0.036079},
    {0.036926, 0.176761, 0.075322, 0.035037, -0.014691, 0.174795, -0.034237, -0.120261, 0.029247, -0.044763, -0.009137, 0.181509, 0.119460, -0.029204, 0.261177, -0.000782, 0.029871, 0.316109, -0.152339, -0.156468, 0.047254, 0.295875, -0.076402, 0.019665, 0.063160, -0.159384, 0.024374, -0.027905, -0.112588, -0.106767, 0.136985, -0.097038, -0.140712, 0.188323, 0.061454, 0.045103, -0.141514, 0.057970, -0.056928, -0.107688, -0.116866, -0.133336, 0.029923, -0.221649, -0.060765, 0.109068, -0.048870, 0.071629, -0.088812, -0.115256, 0.092488, 0.042441, -0.115685, 0.060193, -0.084780, 0.374731, 0.055181, 0.092602, -0.035911, 0.041183, -0.214233, -0.067042, -0.014316, 0.067466, -0.059905, -0.124257, 0.053576, 0.150104, 0.150546, 0.265834, -0.172692, 0.278367, -0.011584, 0.280571, 0.043610, 0.031215, -0.073291, 0.041019, -0.308991, -0.049544, -0.056636, 0.013108, 0.072081, -0.013219, 0.044087, -0.286228, -0.009490, -0.037234, -0.305237, 0.048605, -0.022777, 0.007680, 0.069372, 0.128436, -0.132350, -0.017077, 0.163346, 0.045909, -0.092709, -0.072248, 0.080147, -0.090647, -0.128016, 0.132250, -0.174362, 0.036704, 0.148862, -0.001633, 0.154048, 0.019053, 0.015641, 0.092476, 0.024063, 0.189251, -0.049541, 0.004383, 0.129856, -0.284394, 0.246955, -0.114587, 0.142882, -0.169446, -0.104701, 0.263684, 0.013811, 0.263682, -0.014265, -0.045007},
    {-0.029048, 0.128633, 0.129833, -0.000215, -0.111263, 0.165315, -0.138840, -0.128104, 0.109502, 0.062307, 0.035262, 0.137888, 0.168695, -0.102240, 0.288563, -0.070956, -0.111521, 0.323416, -0.268457, -0.042101, 0.095227, 0.162460, -0.086273, 0.070143, 0.151049, -0.192674, -0.094040, -0.086030, -0.191933, -0.084179, 0.174609, -0.176397, -0.337350, 0.166789, 0.056691, -0.048295, -0.105479, -0.072429, 0.030487, -0.138572, -0.171407, 0.043253, -0.005050, -0.090515, 0.046472, 0.247108, -0.023939, 0.088822, -0.119321, -0.016195, 0.139607, -0.004883, -0.122593, 0.004178, -0.047171, 0.357739, 0.173055, 0.213386, -0.115267, 0.149944, -0.247881, 0.030261, 0.074506, 0.110063, 0.000669, -0.145761, -0.164373, 0.138479, 0.081218, 0.238779, -0.225947, 0.061061, -0.056768, 0.174128, -0.001664, 0.048617, -0.120122, -0.036060, -0.230766, -0.045875, 0.036956, -0.133470, -0.163235, 0.078949, -0.083732, -0.277287, -0.141901, 0.009905, -0.255763, 0.203684, 0.019372, 0.066622, 0.066969, 0.188351, 0.019438, 0.067483, 0.201351, 0.040854, -0.154561, -0.085085, -0.126112, -0.102553, -0.183991, 0.205061, -0.192268, 0.167356, 0.184103, 0.138898, 0.115590, -0.113474, 0.110397, 0.201718, 0.044284, 0.085856, -0.130446, -0.130524, 0.249735, -0.247734, 0.289404, -0.068237, 0.158300, -0.074213, -0.083445, 0.164287, 0.128177, 0.117619, -0.008889, -0.035217},
    {-0.087220, 0.335825, 0.061312, 0.018965, -0.110183, 0.142107, -0.035444, -0.100304, 0.330690, -0.260725, 0.089264, -0.126225, 0.029925, -0.130608, 0.170587, -0.010040, 0.008608, 0.121666, -0.273850, -0.073406, 0.112563, 0.210103, -0.053469, 0.136450, -0.143722, -0.237275, -0.018861, -0.090775, 0.057966, 0.087357, 0.087020, 0.267424, -0.071611, 0.212258, 0.032551, -0.046637, -0.088471, -0.067021, -0.096976, -0.125893, -0.183779, -0.128546, -0.095845, 0.165195, 0.145199, 0.422264, 0.063916, -0.316186, -0.015215, 0.100073, 0.121139, 0.216058, 0.170993, 0.017169, -0.048071, 0.283017, 0.150382, 0.249318, -0.061917, -0.042773, -0.251414, -0.070955, 0.129738, -0.086783, -0.006456, -0.242734, -0.285344, -0.037376, 0.240908, 0.551146, -0.095076, 0.144457, 0.075106, 0.268822, -0.269601, 0.002496, -0.084794, 0.089529, -0.231866, 0.206130, -0.010678, -0.191706, -0.323727, -0.307854, -0.058746, -0.138345, -0.097535, -0.085642, -0.270697, -0.106683, 0.201921, 0.157263, 0.291117, -0.278522, 0.009124, 0.006213, 0.104027, 0.058104, 0.020265, -0.008432, 0.032466, -0.095794, -0.286053, 0.193603, -0.471884, 0.242059, -0.126786, -0.073127, 0.221007, -0.342129, 0.141802, 0.217394, 0.363313, 0.058518, -0.253555, -0.055621, 0.193596, -0.128884, 0.244876, -0.079682, 0.120846, 0.030210, -0.102936, 0.260178, 0.108770, -0.092367, -0.075394, -0.269136},
    {-0.019159, 0.400820, 0.178622, 0.051366, -0.021824, 0.126718, -0.062892, -0.194177, 0.402075, -0.136278, -0.020139, -0.213557, 0.010042, -0.205620, 0.051817, 0.141554, -0.191511, -0.142624, -0.201192, -0.284524, 0.053300, 0.265139, -0.093306, 0.367272, -0.318936, -0.367567, 0.047914, 0.220001, -0.108304, 0.166928, -0.022561, 0.338819, -0.129856, 0.198522, 0.194946, -0.049305, -0.215558, -0.001833, -0.118416, -0.278487, -0.002872, -0.189157, -0.304602, 0.127738, 0.002679, 0.539067, -0.000381, -0.234334, 0.118927, -0.041185, 0.131815, 0.255619, 0.102549, -0.048160, 0.071849, 0.264242, 0.074214, 0.133045, -0.152069, -0.249845, -0.169816, -0.167219, 0.043138, 0.012051, 0.055209, -0.282239, 0.007717, -0.056802, 0.116642, 0.529597, -0.073228, 0.128883, -0.089923, 0.372431, -0.325209, -0.316067, -0.227346, -0.063957, -0.375643, 0.180156, -0.080388, -0.470721, -0.008465, -0.369737, -0.081986, -0.246792, 0.123512, -0.095823, -0.140019, -0.056473, 0.109297, 0.176369, 0.220396, -0.350102, -0.070026, -0.235004, 0.026286, 0.154844, 0.226477, -0.159026, 0.055868, -0.283379, -0.293923, 0.000934, -0.369638, 0.201169, -0.103028, 0.016779, 0.217447, -0.258079, 0.065873, 0.127083, 0.417476, 0.027499, -0.248814, 0.151877, 0.260977, 0.070394, 0.285148, -0.303753, 0.081966, -0.037842, -0.106145, 0.289988, -0.010540, -0.068580, -0.019063, -0.359036},
    {-0.149016, 0.367975, 0.248072, 0.014308, -0.044354, 0.316251, -0.072203, -0.143263, 0.465904, -0.011967, 0.027023, -0.089059, -0.005395, -0.190210, 0.141635, 0.199546, -0.200094, -0.181617, -0.406873, -0.185225, -0.065851, 0.001819, -0.066648, 0.369313, -0.288157, -0.204192, -0.061750, 0.276667, 0.091608, 0.015047, -0.169780, 0.244551, -0.029129, 0.107507, 0.019446, 0.238577, -0.014823, -0.250287, -0.156645, -0.318987, -0.079028, -0.067348, -0.027089, 0.183460, -0.052440, 0.584657, 0.028890, -0.315586, 0.088943, -0.237504, -0.143333, 0.152313, -0.047890, 0.037327, 0.094125, 0.149963, 0.023321, 0.330578, -0.113907, -0.182680, -0.003749, -0.198643, -0.020711, -0.080997, 0.332227, -0.258765, -0.085497, 0.134124, 0.163736, 0.430833, 0.205681, 0.262835, -0.228803, 0.365877, -0.129610, -0.303344, -0.303871, -0.030451, -0.362386, 0.127140, -0.056260, -0.075005, -0.033247, -0.116868, -0.021841, -0.341097, 0.163561, -0.203676, 0.018093, -0.077832, 0.113474, 0.110749, 0.366192, -0.225765, 0.054013, -0.273542, -0.139961, 0.140454, 0.320508, -0.140868, 0.054640, -0.230240, -0.172673, 0.048832, -0.202451, 0.325671, -0.250560, -0.026854, 0.259498, -0.361229, -0.027418, 0.142048, 0.333081, -0.260292, -0.323819, 0.334538, 0.268296, 0.204893, 0.240419, -0.281563, -0.096907, 0.131048, -0.300829, -0.058604, 0.069255, -0.198905, -0.055712, -0.407890},
    {-0.173805, 0.311397, 0.148301, 0.156287, -0.142377, 0.211277, -0.093661, -0.141600, 0.519600, 0.019524, 0.003721, 0.072230, -0.184157, -0.179460, -0.145015, -0.041477, -0.326773, -0.097796, -0.667751, -0.033701, 0.106891, -0.062860, -0.050101, 0.373494, 0.027440, -0.299620, 0.019274, 0.257248, 0.079234, 0.081974, -0.250963, 0.233047, 0.450297, 0.072361, -0.168137, 0.141928, -0.033606, -0.201381, 0.010712, -0.199853, 0.099114, 0.112808, 0.061199, 0.322753, 0.082611, 0.405699, 0.091292, -0.224764, 0.024445, -0.323709, -0.096356, 0.010696, -0.082868, 0.122075, 0.223725, 0.111852, -0.133132, 0.379504, -0.050036, -0.027451, 0.217496, -0.226493, -0.206967, -0.088777, 0.268563, -0.106565, -0.304336, 0.107206, 0.146836, 0.569685, 0.355962, 0.373406, -0.335789, 0.416603, -0.013167, -0.197081, -0.365036, -0.165065, -0.357671, 0.113459, -0.053342, -0.026042, -0.103109, -0.109717, -0.387835, -0.393502, 0.229249, -0.299451, -0.117843, 0.017710, 0.006032, -0.033602, 0.240502, 0.029856, 0.016510, -0.202442, -0.048347, 0.012780, 0.326104, -0.158760, 0.011369, -0.035817, 0.183268, 0.010767, 0.012605, 0.422541, -0.138465, 0.032494, 0.237946, -0.169172, -0.277319, 0.316966, 0.304136, -0.293377, -0.189320, 0.258758, -0.033757, 0.283460, 0.264730, -0.511510, 0.125465, 0.267758, -0.138712, -0.006351, 0.115394, -0.275667, -0.139017, -0.271321},
    {-0.187147, 0.162695, -0.049550, 0.299812, -0.303098, 0.366401, -0.103816, -0.284826, 0.089406, 0.044448, -0.406015, 0.397293, -0.328779, -0.421745, -0.275535, -0.276905, -0.153112, 0.084087, -0.550129, -0.312714, 0.247351, 0.100209, -0.216086, 0.258329, 0.324305, -0.285028, -0.062679, -0.033348, 0.304845, -0.138119, 0.112046, 0.207576, 0.352777, -0.034153, 0.148778, 0.025547, 0.185393, -0.312699, -0.097169, -0.112234, -0.146097, 0.065505, -0.009331, 0.122260, -0.098534, -0.090394, 0.094363, -0.178924, -0.296331, -0.165729, -0.085763, 0.173096, 0.017578, 0.196680, 0.174227, 0.039349, -0.359440, -0.101737, -0.222313, -0.157384, -0.216595, 0.101768, -0.173027, 0.227375, 0.165706, -0.252639, -0.234384, 0.242483, 0.420342, 0.529843, 0.266141, 0.477475, -0.182253, 0.706004, 0.048763, -0.335473, -0.224383, -0.044018, -0.218121, 0.001856, 0.009223, -0.187322, -0.194608, -0.128959, -0.341167, -0.287394, 0.167317, -0.057071, -0.012317, -0.043772, -0.107407, 0.121908, 0.020094, 0.310826, -0.286760, 0.038755, -0.136342, 0.061329, 0.431618, -0.185060, -0.149936, -0.190828, 0.278674, 0.202733, 0.005416, 0.151170, 0.459876, 0.247718, 0.219531, -0.148180, 0.016509, -0.195374, 0.207825, -0.443340, -0.189008, 0.052401, -0.103726, 0.260989, 0.076872, -0.732632, 0.024193, 0.456094, -0.100699, -0.101043, 0.190388, 0.195393, -0.124672, -0.278867},
    {-0.229969, 0.172199, -0.179664, 0.126274, -0.447851, 0.315581, -0.342929, -0.262105, -0.103402, 0.097678, -0.350902, 0.305421, -0.082488, -0.697721, 0.012782, -0.516384, -0.381301, 0.385762, -0.146091, -0.428642, 0.037604, -0.117367, -0.432809, 0.168405, 0.346612, -0.366702, -0.098804, -0.006259, 0.538647, -0.369991, 0.174049, 0.273622, 0.096556, 0.019591, 0.317023, 0.156429, 0.167049, -0.255353, 0.046530, -0.192296, -0.184991, 0.010844, -0.166364, 0.121493, -0.382611, -0.030179, 0.023166, 0.140128, -0.508312, -0.264264, -0.199688, -0.041888, -0.078266, -0.209893, 0.159672, 0.407116, -0.562092, -0.220782, -0.334877, 0.056345, -0.350036, 0.346915, -0.319558, 0.068602, 0.162645, -0.452841, -0.423859, 0.037689, 0.449303, 0.336690, 0.003380, 0.509587, -0.212865, 0.392349, -0.195347, -0.265451, -0.173862, 0.181133, -0.008235, -0.087736, -0.075535, -0.500183, -0.007031, -0.202168, -0.343821, -0.292769, 0.452079, 0.021761, 0.251339, -0.119246, 0.071436, -0.029334, -0.258978, 0.353454, -0.213157, -0.046541, 0.018150, 0.091993, 0.327201, -0.469038, -0.165405, -0.247805, -0.014417, 0.150890, -0.148864, -0.120280, 0.589940, 0.045655, 0.184734, -0.038975, 0.018469, -0.229310, 0.355206, -0.010236, -0.162756, 0.136192, -0.111464, 0.060473, -0.137315, -0.619014, -0.033666, 0.329519, -0.119562, -0.137693, 0.129710, 0.339652, -0.333316, -0.330441},
    {-0.353858, -0.179423, -0.268901, -0.032308, -0.406853, 0.179634, -0.318598, -0.177395, 0.043783, 0.082047, -0.376201, 0.404452, 0.077374, -0.651923, 0.363328, -0.127773, -0.460577, 0.219300, 0.046153, -0.413438, -0.166582, -0.381381, -0.273744, 0.395343, 0.095055, -0.466552, -0.160494, 0.070021, 0.152743, -0.362465, 0.167209, 0.314122, 0.118772, 0.011051, 0.264026, 0.047292, 0.086642, 0.022325, 0.117988, -0.364076, -0.269951, 0.077116, -0.033627, 0.211347, 0.092463, 0.010515, 0.131422, 0.171406, -0.245878, 0.074878, -0.090068, -0.217169, 0.030572, -0.486807, 0.156932, 0.061473, -0.527258, -0.205423, -0.272718, 0.362932, 0.174627, 0.170592, -0.461197, -0.105530, 0.134227, -0.291294, -0.436315, -0.017841, 0.140490, 0.067831, -0.236251, 0.343779, -0.029667, 0.096529, 0.035035, -0.228215, -0.017137, 0.121731, -0.016637, 0.044297, -0.025216, -0.542693, 0.003946, -0.273298, -0.266664, -0.461250, 0.518900, -0.026090, 0.178313, -0.186706, 0.328634, -0.410711, -0.318243, 0.207836, -0.027154, -0.085997, -0.219768, 0.065650, 0.137365, -0.339904, -0.300612, -0.086055, 0.063648, -0.046895, -0.127360, -0.074603, 0.351880, 0.215054, -0.035643, 0.175789, 0.327105, -0.113114, 0.105582, 0.150529, 0.020372, 0.368247, -0.082629, -0.000574, -0.176698, -0.708734, -0.108745, 0.326067, -0.018866, -0.101410, 0.082471, 0.187530, -0.375912, -0.038700},
    {-0.318262, 0.168897, -0.426401, -0.230774, -0.597400, -0.063791, -0.435464, -0.122638, -0.152088, -0.029165, -0.257473, 0.433111, 0.111921, -0.424290, 0.251793, 0.214841, -0.691188, 0.191515, -0.003307, -0.484099, -0.074484, -0.544723, -0.091228, 0.510456, -0.098353, -0.111664, -0.140376, 0.077132, -0.019129, -0.212511, 0.151698, 0.362949, 0.026214, 0.021402, 0.512718, 0.088482, 0.009187, 0.084870, 0.180432, -0.401881, -0.435432, 0.273502, -0.265427, 0.272771, 0.309569, -0.273212, -0.060005, 0.515152, 0.173388, 0.433338, 0.280900, -0.266945, 0.064687, -0.425980, 0.011270, -0.031613, -0.375025, -0.333951, -0.562592, 0.354916, 0.261240, 0.115296, 0.004300, -0.202464, 0.245883, -0.280827, -0.561550, -0.252403, -0.304718, -0.058511, -0.331657, 0.158753, -0.217028, 0.070120, 0.106537, -0.123386, -0.010023, 0.216399, 0.085380, 0.063465, -0.003942, -0.353005, -0.005105, -0.183568, -0.187696, -0.602120, 0.001704, -0.215684, 0.172814, 0.019550, 0.105643, -0.443961, -0.314579, 0.219765, 0.163959, 0.009354, -0.271260, -0.001623, 0.078945, -0.295597, -0.224308, 0.240643, 0.162335, -0.153950, -0.177209, -0.051920, -0.054391, 0.349122, -0.323212, 0.273102, 0.557172, -0.204484, 0.140049, -0.141268, -0.176525, 0.200569, 0.051336, -0.172717, -0.096796, -0.610024, -0.170122, 0.301330, 0.154780, -0.244742, 0.172835, 0.133223, -0.309167, 0.240271},
    {-0.617022, 0.148408, -0.404350, -0.296312, -0.614400, -0.057774, -0.495262, -0.163479, -0.187297, -0.079976, -0.186567, 0.363708, 0.101416, -0.341313, 0.093048, 0.235757, -0.641020, 0.028589, -0.195320, -0.212827, -0.075859, -0.343737, 0.097196, 0.413421, 0.022584, 0.173018, -0.248870, -0.005010, -0.258816, -0.185742, 0.123199, -0.005474, -0.002979, 0.183093, 0.381543, 0.181797, -0.078191, 0.083087, -0.136910, -0.272452, -0.320773, 0.369573, -0.663675, 0.172547, 0.330516, -0.285205, 0.064031, 0.454730, 0.304877, 0.502582, 0.154236, 0.144017, -0.041952, -0.174755, -0.135588, -0.013852, -0.397336, -0.180677, -0.424562, 0.245710, 0.506444, 0.397283, -0.018757, -0.147854, 0.140226, -0.316388, -0.556216, -0.370076, -0.324993, -0.203656, 0.028630, -0.097308, -0.235381, 0.259035, 0.255658, -0.173116, 0.057280, 0.100864, -0.047764, -0.262170, -0.107181, -0.646077, 0.094427, -0.159046, -0.285319, -0.615800, -0.382430, -0.321971, 0.085109, -0.063322, 0.025843, -0.371024, -0.468175, 0.209003, 0.044387, 0.096354, -0.195565, 0.054051, 0.041925, -0.372752, -0.138719, 0.404675, 0.370338, -0.249073, -0.160375, 0.041557, -0.124681, 0.521295, -0.416610, 0.385043, 0.544741, 0.024992, 0.064340, -0.270974, -0.123279, 0.083637, 0.131693, -0.103104, -0.091435, -0.659988, -0.112352, 0.185604, 0.000316, -0.274045, 0.203743, 0.164989, -0.155473, 0.359177},
    {-0.461578, 0.110242, -0.292941, -0.534744, -0.264241, 0.111958, -0.425609, -0.171229, -0.350994, -0.130433, -0.049167, 0.176743, 0.302089, -0.633764, -0.142241, -0.155255, -0.529235, 0.132990, -0.044810, -0.116481, -0.095120, -0.102699, -0.012850, 0.233080, 0.042483, -0.067375, -0.224429, -0.191350, -0.596837, -0.401024, 0.030149, -0.029081, -0.174997, 0.325754, 0.463171, 0.021488, -0.366130, 0.130248, -0.116887, -0.294005, -0.463290, 0.101673, -0.688336, 0.174721, 0.154439, -0.381139, 0.154124, 0.381991, 0.536515, 0.179495, 0.156948, 0.323211, -0.022246, 0.087101, 0.122924, 0.222004, -0.351748, -0.340720, -0.448523, 0.082712, 0.215463, 0.255372, 0.135359, -0.023625, 0.143229, -0.085430, -0.345778, -0.205764, -0.165813, -0.211071, 0.334722, -0.487519, -0.105817, 0.343414, 0.165786, -0.307485, 0.040483, 0.077499, 0.174374, -0.400430, -0.002755, -0.600135, 0.245730, 0.030897, -0.240882, -0.724193, -0.350842, -0.380404, -0.173997, -0.055920, -0.029108, -0.266750, -0.344658, 0.129812, -0.223982, 0.302942, -0.119550, 0.030318, 0.071964, -0.550853, -0.241896, 0.420118, 0.398846, -0.267921, 0.014116, -0.218912, 0.066462, 0.145126, -0.279129, 0.164621, 0.379079, 0.381732, -0.073106, -0.275383, -0.307839, 0.356559, 0.151913, -0.228093, 0.071141, -0.726516, 0.024746, 0.040670, -0.142171, 0.008720, 0.059045, 0.322868, -0.236829, -0.041817},
    {-0.200447, -0.085452, -0.123379, -0.420590, -0.258827, -0.031693, -0.588760, -0.164782, -0.513458, 0.064746, 0.043113, -0.092869, 0.179948, -0.567900, 0.024664, -0.285867, -0.310018, 0.166117, -0.135550, 0.077478, -0.307594, -0.059312, -0.108387, 0.024900, 0.075018, -0.080207, -0.265661, -0.294666, -0.447537, -0.355604, 0.045637, 0.030709, -0.093602, 0.155939, 0.241026, -0.059296, -0.313248, 0.101612, -0.126266, -0.304878, -0.351377, -0.186935, -0.627773, 0.075566, -0.197064, -0.859946, 0.120721, 0.060801, 0.729394, -0.116999, 0.219263, 0.106380, -0.019830, 0.045384, -0.102607, 0.027668, -0.288603, -0.584584, -0.314934, -0.018995, 0.016056, 0.227620, 0.260180, 0.104369, 0.106074, -0.141730, -0.188914, 0.010588, 0.077146, 0.045466, 0.344162, -0.704240, 0.135336, 0.177892, 0.142437, -0.306624, 0.104447, 0.037624, 0.481094, -0.098133, 0.120975, -0.421409, 0.327445, 0.236047, -0.652548, -0.398219, -0.459701, 0.010590, -0.161393, 0.235458, 0.076715, -0.111392, -0.120341, 0.024861, -0.159397, 0.391410, -0.033353, 0.129626, -0.128533, -0.487038, -0.127566, 0.274489, 0.351107, 0.048966, 0.116838, -0.305493, 0.034932, -0.012439, -0.069120, 0.387582, 0.330855, 0.319238, -0.253485, -0.351522, -0.118328, 0.465758, 0.310270, -0.088723, 0.227350, -0.568922, 0.186754, -0.100563, -0.117925, 0.008197, 0.246446, 0.370259, -0.176317, -0.229478},
    {0.058990, -0.014846, -0.490984, -0.486490, -0.087217, -0.372262, -0.573769, 0.239343, -0.251863, -0.148943, -0.153520, 0.081388, 0.258506, -0.467639, 0.173339, -0.326030, -0.312875, 0.198989, 0.049914, 0.027478, -0.182124, -0.007510, -0.122554, 0.029870, 0.273583, -0.057833, -0.030830, -0.394907, -0.448843, 0.145331, 0.233523, 0.128719, 0.098201, -0.064503, -0.035156, 0.144075, -0.137993, -0.023420, 0.106117, -0.145422, -0.291604, -0.171041, -0.459561, 0.098891, -0.141134, -0.766337, 0.091605, 0.221933, 0.447377, -0.113281, 0.355667, -0.205566, 0.013663, -0.300015, -0.158747, -0.307760, -0.094215, -0.350801, -0.019131, 0.016576, 0.289375, -0.038466, 0.078793, 0.147741, -0.048347, 0.160932, 0.064900, 0.216572, 0.144914, -0.036567, 0.451085, -0.756841, 0.010244, -0.250111, 0.199377, -0.337117, -0.180771, 0.122209, 0.789965, 0.023159, 0.003877, -0.259686, 0.292797, 0.020938, -0.715703, -0.327648, -0.642082, 0.253894, 0.027023, 0.171509, -0.064123, -0.016084, -0.070350, 0.156956, 0.011298, 0.418085, 0.023168, 0.176475, -0.214465, -0.581881, -0.143877, 0.149564, 0.092909, -0.239535, 0.105604, -0.111280, 0.015976, -0.329409, 0.067427, 0.184071, 0.256536, 0.427647, -0.208524, -0.093938, 0.059135, 0.341079, 0.049784, -0.095808, 0.204709, -0.501320, 0.090194, -0.151295, -0.076955, -0.191963, 0.033340, 0.398008, -0.135695, -0.382774},
    {0.094644, 0.145314, -0.329622, -0.240223, 0.256146, -0.400537, -0.715273, 0.390276, -0.126593, -0.346889, -0.320570, -0.233311, 0.409887, -0.264873, -0.013021, -0.091553, -0.400085, 0.019051, 0.085404, 0.053369, -0.036816, -0.059891, -0.360872, 0.089607, 0.336419, -0.047173, 0.149813, -0.477538, -0.160510, 0.438241, 0.197890, -0.101622, 0.239043, -0.111022, 0.054103, 0.331040, -0.295360, -0.201844, 0.029323, -0.167124, 0.002181, -0.118819, -0.373766, 0.095366, -0.252877, -0.731471, 0.028038, -0.147665, 0.206956, 0.007201, 0.294775, 0.201116, 0.040162, -0.360234, -0.219715, -0.478374, -0.139838, -0.110870, 0.257049, 0.025878, 0.289116, -0.139437, 0.257827, 0.337222, -0.380798, 0.238472, 0.004101, -0.117400, -0.000316, 0.346089, 0.561147, -0.528726, 0.161710, -0.149441, 0.081114, -0.237895, -0.132148, 0.130264, 0.649441, 0.056076, -0.122722, -0.302029, 0.186669, -0.318866, -0.502974, -0.433374, -0.193600, 0.191111, 0.012552, 0.150880, -0.351749, -0.022065, 0.017538, 0.090175, 0.053981, 0.384761, 0.142666, 0.032364, 0.188976, -0.274700, -0.228404, -0.102189, -0.094096, -0.285491, 0.172130, 0.190096, 0.008474, -0.461717, -0.147310, 0.273018, 0.166166, 0.357613, -0.063505, -0.017330, 0.129155, 0.063009, -0.007092, 0.136976, 0.228104, -0.505066, -0.076483, 0.035400, -0.050179, -0.127689, 0.139907, 0.392343, -0.264145, -0.339820},
    {0.048388, 0.071076, -0.284141, 0.065052, 0.380561, -0.369963, -0.712977, 0.168437, 0.268347, -0.187239, -0.324260, -0.065394, 0.035466, -0.028975, 0.144354, -0.071830, -0.410844, 0.201700, 0.239523, -0.255079, -0.049239, 0.405090, -0.310332, 0.201262, 0.152678, 0.053563, 0.119880, -0.434008, 0.028586, 0.080569, -0.066193, 0.138682, 0.022742, 0.004665, 0.316527, 0.281286, -0.281960, 0.048564, 0.024318, -0.213639, -0.093349, -0.157614, -0.077316, 0.215740, -0.163766, -0.735258, -0.174216, -0.049204, 0.101851, -0.221941, -0.063316, -0.054413, 0.215671, -0.291533, -0.317687, -0.217012, -0.139440, -0.110354, 0.124965, -0.198252, 0.112962, -0.164261, 0.419411, 0.151573, -0.439682, 0.371291, -0.013014, 0.226177, 0.030852, 0.423564, 0.386591, -0.424483, 0.057239, 0.380008, -0.068182, -0.065336, -0.086281, 0.256257, 0.364305, 0.074056, -0.220867, -0.221041, 0.017109, -0.488298, -0.088499, -0.391954, 0.079103, -0.081303, 0.091408, 0.194472, -0.107416, 0.035736, 0.255162, 0.182103, -0.228054, 0.451020, 0.107019, -0.060358, 0.205809, -0.191117, -0.465265, -0.109160, -0.241784, -0.370739, 0.113255, 0.180265, 0.178152, -0.375164, 0.014584, 0.284258, 0.069165, 0.037874, 0.138548, -0.281857, 0.137881, -0.056867, -0.203958, -0.236733, 0.218242, -0.305082, 0.146410, 0.115503, 0.168988, -0.139632, 0.057523, 0.635674, -0.323126, -0.245310},
    {-0.084771, -0.038355, 0.006028, 0.278796, 0.446440, -0.380248, -0.677732, -0.056808, 0.305736, -0.203296, -0.266836, 0.185863, 0.024535, -0.055963, 0.110514, -0.317878, -0.285755, 0.043642, 0.118219, -0.287367, -0.255437, 0.272705, -0.203834, 0.014350, 0.168979, -0.218673, 0.095353, -0.583432, 0.065352, -0.215460, 0.055146, 0.033470, -0.240787, -0.201855, 0.098550, 0.091528, 0.034291, 0.288915, -0.189542, -0.113556, -0.206184, -0.006931, 0.018112, 0.159843, -0.057595, -0.540456, -0.240905, -0.035823, -0.066698, -0.310782, -0.200547, -0.173977, 0.212382, -0.186217, -0.426991, -0.040421, -0.064304, -0.281556, 0.028181, -0.382480, 0.058757, -0.103266, 0.223121, -0.051044, -0.262190, 0.288016, 0.225689, 0.283111, 0.006374, 0.204994, 0.207383, -0.020625, 0.168312, 0.382753, -0.064877, -0.429021, -0.003850, 0.291291, -0.046355, 0.047845, -0.139977, -0.225578, 0.056022, -0.602992, -0.001916, -0.200510, -0.046455, -0.310590, -0.424796, 0.100479, 0.043537, 0.143172, -0.171679, 0.151867, -0.198224, 0.476280, -0.015525, 0.155402, 0.197266, -0.251678, -0.280057, -0.223877, -0.038754, -0.120843, 0.005207, 0.001463, 0.351830, -0.407401, 0.172146, 0.161911, 0.018935, -0.039033, -0.087185, -0.492029, 0.039001, 0.146834, -0.112086, -0.199214, 0.133617, -0.201113, 0.266171, 0.057780, 0.293042, -0.138278, -0.324130, 0.452936, -0.319737, -0.133177},
    {-0.035634, -0.099921, 0.333080, 0.029038, 0.141550, -0.309862, -0.329987, -0.171810, 0.203807, 0.128165, -0.000089, 0.195599, -0.266398, -0.184518, 0.020953, -0.414867, -0.308918, -0.420650, -0.168112, -0.116355, -0.316736, -0.163986, -0.113798, -0.276097, -0.022931, -0.040783, 0.142619, -0.576390, 0.085942, -0.372450, -0.232215, -0.048015, -0.317436, -0.492807, -0.029479, -0.033281, 0.169363, 0.009513, 0.120660, 0.022968, -0.345105, 0.142384, -0.440884, 0.146434, -0.110638, -0.390770, -0.209659, 0.018478, -0.204604, 0.256635, -0.266479, -0.275627, 0.294927, -0.161600, -0.187220, 0.033018, -0.172289, -0.251727, -0.067213, -0.330301, 0.014678, -0.009341, 0.204271, -0.222390, -0.180435, 0.046956, 0.250292, 0.157397, -0.231601, 0.100239, 0.165201, 0.174435, -0.046838, 0.032551, 0.221913, -0.600396, 0.007388, 0.281901, -0.295673, 0.085604, -0.185597, -0.099815, -0.162540, -0.342232, -0.100889, -0.252214, -0.018962, -0.482846, -0.461882, 0.117905, 0.164923, 0.254277, -0.171464, 0.221303, -0.091474, 0.328997, 0.069838, -0.034586, 0.087589, -0.287152, -0.272688, -0.245381, 0.057861, 0.134636, -0.106357, -0.100160, 0.276377, -0.301408, 0.090227, 0.056457, 0.007281, -0.319500, -0.238504, -0.455275, -0.033801, -0.016465, -0.124294, -0.111605, 0.129176, -0.180073, 0.011568, -0.149840, 0.238102, -0.024989, -0.235562, 0.258487, -0.203530, -0.038547},
    {-0.033013, 0.022980, 0.499951, -0.175559, -0.241550, -0.223995, -0.034361, -0.260832, 0.063680, 0.102582, 0.099315, 0.066274, -0.092355, -0.400524, -0.104633, -0.297939, -0.397976, -0.384122, -0.219793, 0.116275, -0.276145, -0.096648, -0.009364, -0.073908, 0.114488, -0.030816, 0.162306, -0.444249, 0.038248, -0.483468, -0.210486, -0.068640, -0.282386, -0.271853, 0.164311, 0.239171, 0.167715, -0.158791, 0.143323, -0.111403, -0.242022, -0.179342, -0.355298, 0.476437, -0.148643, -0.363267, -0.019455, 0.005056, -0.418782, 0.331079, -0.243852, -0.239417, -0.019770, -0.188355, -0.242750, 0.044112, -0.229040, 0.000500, 0.060271, 0.011780, -0.092454, -0.140566, 0.121262, -0.326908, -0.430429, 0.155702, -0.039721, -0.014612, -0.211459, -0.015933, 0.122376, -0.022583, -0.314144, 0.164556, 0.275483, -0.404256, 0.167474, 0.273556, -0.191629, -0.235861, -0.192587, 0.041476, -0.168811, -0.040747, -0.178168, -0.248066, -0.189787, -0.464876, -0.234200, 0.221158, 0.213535, 0.037176, -0.212711, 0.090071, 0.103189, 0.212834, 0.050528, -0.145609, 0.211890, -0.218411, -0.123979, -0.140341, 0.124249, 0.080771, -0.313187, -0.050296, 0.072018, -0.094858, 0.001988, 0.077795, -0.045967, -0.138319, 0.126237, -0.295266, -0.013973, 0.025049, -0.058512, -0.033752, -0.026514, -0.046627, 0.037414, -0.107526, 0.318677, -0.059599, 0.018115, -0.029819, -0.348047, -0.059318},
    {-0.082566, 0.035745, 0.312847, -0.014686, 0.067708, -0.239979, -0.034647, 0.093942, 0.301463, 0.065962, -0.213797, 0.069099, 0.034481, -0.162754, 0.142699, 0.101296, -0.143524, -0.074829, -0.045574, 0.097024, 0.030396, 0.090526, -0.026839, -0.055267, 0.229381, -0.057934, 0.178977, -0.466487, 0.021714, -0.269453, -0.021624, -0.054720, -0.216960, 0.013642, 0.158463, 0.330888, 0.064940, -0.246183, -0.308543, -0.083790, -0.164547, -0.271418, -0.066374, 0.318488, 0.029051, 0.015747, -0.018635, -0.155732, -0.143894, 0.109703, 0.188740, -0.253136, -0.103715, 0.002806, -0.091212, -0.107846, -0.088266, 0.352002, 0.151030, 0.322466, -0.150637, -0.257722, -0.085860, -0.183006, -0.439201, 0.120472, -0.260798, -0.140927, -0.151874, -0.106905, 0.309932, -0.026442, -0.188382, 0.220091, 0.087738, -0.246924, 0.086906, 0.151653, -0.140130, -0.110834, -0.275953, 0.255799, 0.058097, 0.032105, -0.152562, -0.055022, -0.280326, -0.521590, -0.190166, -0.095608, -0.164030, -0.040944, -0.082311, -0.168370, 0.212499, 0.553652, 0.109767, -0.153750, 0.355572, 0.131894, -0.001951, -0.027049, -0.044571, -0.151088, -0.258883, 0.119652, 0.156001, 0.011949, -0.031318, 0.227052, -0.148064, -0.021366, 0.168643, -0.187557, 0.275013, 0.007663, 0.021765, 0.074432, -0.120556, 0.013007, -0.066865, -0.128063, 0.148014, -0.118392, 0.013397, 0.272053, -0.487967, -0.051736},
    {0.027237, -0.141126, 0.040933, 0.068888, 0.433208, -0.136174, -0.173376, 0.224002, 0.019893, 0.000520, -0.245857, 0.187382, -0.035907, 0.188395, 0.275102, 0.017786, 0.211072, 0.022213, 0.207383, -0.016679, 0.013091, 0.435926, 0.046627, 0.131256, -0.022993, -0.067504, 0.031111, -0.408879, -0.490675, -0.049815, -0.098506, 0.158824, 0.207105, 0.142529, 0.025927, 0.244541, -0.000579, 0.029189, -0.101922, 0.067729, -0.033314, -0.099770, -0.013310, -0.302001, 0.329445, -0.002258, 0.023709, -0.247849, -0.231865, 0.032782, 0.009134, -0.319024, 0.296118, -0.068455, -0.049258, 0.104942, 0.092803, 0.412380, 0.392604, -0.023346, -0.180210, -0.104442, -0.119866, 0.129071, -0.246371, -0.154002, -0.182726, 0.278305, -0.183922, -0.206913, 0.074878, -0.054405, 0.092097, 0.180671, -0.285326, 0.305634, 0.102296, -0.218042, 0.083083, 0.039020, -0.128654, -0.045892, -0.079225, 0.106214, -0.066870, 0.049738, -0.147988, -0.218455, 0.009660, 0.148219, 0.314154, -0.156074, 0.179216, 0.053757, 0.070760, 0.659717, -0.204945, 0.078408, 0.067224, 0.172267, -0.143183, 0.008498, -0.190387, -0.052484, -0.027551, 0.044957, 0.103542, 0.279572, -0.032311, 0.192809, -0.176072, -0.199165, -0.161124, -0.269493, 0.687203, -0.015201, -0.023326, 0.100370, -0.031789, 0.118846, -0.114016, -0.248988, 0.131849, -0.066803, -0.076237, 0.280863, -0.431806, 0.155567},
    {0.133822, -0.250140, 0.053704, 0.036887, 0.235574, -0.017354, -0.066618, 0.013022, -0.050790, 0.138163, -0.055121, 0.084652, -0.269333, 0.317858, 0.073430, 0.065193, 0.464553, 0.055377, 0.176260, 0.102702, 0.011844, 0.182910, -0.090959, 0.164249, -0.387829, 0.470767, -0.014745, -0.333606, -0.448344, -0.234085, 0.030976, 0.076003, 0.017141, -0.143534, -0.219757, 0.298693, 0.019247, 0.383711, -0.103607, 0.169307, 0.260602, 0.157922, 0.148587, -0.202334, 0.156501, -0.093022, -0.121394, -0.035672, -0.136276, 0.036625, -0.417400, -0.100103, 0.510779, 0.024047, -0.023245, 0.279406, 0.158280, 0.072102, 0.270466, -0.308710, 0.051782, -0.048075, 0.025310, 0.259497, -0.071624, 0.029687, -0.232299, 0.389392, -0.084774, -0.284355, -0.170260, -0.141442, 0.099655, 0.006817, -0.043309, 0.591009, -0.059059, -0.238045, 0.312977, 0.206457, -0.155548, -0.152859, -0.107761, 0.036288, -0.167143, 0.190909, -0.217762, -0.082358, -0.100492, 0.245104, 0.219215, -0.156269, 0.038524, 0.191313, 0.168144, 0.563879, 0.077460, 0.203930, -0.193917, 0.187716, -0.256391, -0.097792, -0.077196, 0.146898, 0.128357, 0.082950, 0.075623, 0.160728, 0.109771, -0.098613, -0.306561, -0.172728, -0.250725, -0.184752, 0.524813, -0.002998, -0.155177, 0.377357, 0.063225, 0.328917, -0.010575, 0.024033, 0.433800, 0.125086, -0.248805, 0.020918, -0.238938, 0.043216},
    {0.161287, -0.288090, 0.291690, -0.003955, 0.171627, -0.125786, -0.011091, 0.059200, -0.226970, 0.286408, 0.133264, -0.067385, -0.090211, 0.318900, 0.161489, -0.023317, 0.426362, 0.150440, -0.032042, 0.079668, 0.115286, 0.135590, -0.090112, 0.194217, -0.258734, 0.376775, -0.063484, -0.047747, -0.324508, -0.166023, 0.004860, -0.014565, 0.132866, 0.012395, -0.299136, 0.233838, 0.273303, 0.348165, 0.052189, 0.016729, 0.176546, -0.007985, 0.080141, -0.162970, 0.032098, -0.078223, -0.157892, -0.073012, -0.039583, -0.152935, -0.122519, -0.042962, 0.064647, -0.062296, -0.020353, 0.198390, 0.139046, -0.077771, 0.196535, -0.083876, 0.097503, -0.003276, 0.223233, 0.093422, -0.144282, 0.138605, -0.140870, 0.389513, -0.160867, -0.236975, -0.028230, -0.206889, 0.199715, 0.098280, 0.308601, 0.514363, 0.001317, -0.069580, 0.137710, 0.163556, 0.099591, -0.085272, -0.157565, -0.212455, -0.129506, 0.131146, -0.356817, -0.143213, -0.077110, 0.230733, 0.209716, -0.088682, -0.018513, -0.004248, 0.072281, 0.086904, -0.027679, 0.127838, -0.151663, 0.039350, -0.228313, 0.015703, -0.049028, 0.220223, 0.204583, 0.065997, -0.075421, 0.154339, -0.025139, -0.108921, -0.204051, -0.032551, -0.194289, -0.071815, 0.230687, -0.063634, -0.125955, 0.321041, -0.057149, 0.229447, 0.068486, -0.060668, 0.208679, 0.106595, -0.046723, -0.204523, -0.150287, -0.168049},
    {0.127624, -0.086976, 0.332923, -0.162221, 0.209434, 0.040851, 0.050773, -0.010516, -0.005798, 0.016676, 0.218933, -0.103082, -0.171509, -0.016831, 0.134632, 0.091386, 0.274949, -0.001297, -0.090927, 0.285229, 0.022575, 0.252196, -0.062408, -0.112190, 0.045705, 0.376382, 0.075424, -0.052451, -0.146677, -0.119562, -0.088377, 0.006410, 0.091898, 0.002726, -0.031563, 0.119660, 0.098935, 0.214540, 0.134683, 0.251993, 0.189907, -0.054965, -0.118978, -0.135717, -0.000515, 0.032291, -0.283394, 0.117750, -0.047596, 0.070674, -0.059917, -0.182626, 0.127330, -0.073725, 0.009591, 0.209611, -0.069861, -0.159356, -0.141217, -0.066704, -0.238460, 0.073648, 0.163966, -0.048344, -0.183218, 0.105549, 0.079984, 0.167255, 0.036868, -0.129272, 0.053583, -0.281984, -0.039791, -0.156015, 0.165655, 0.299862, 0.078295, -0.195306, -0.017484, -0.133480, 0.009113, -0.033205, -0.170384, 0.024099, 0.078780, 0.290421, 0.247526, -0.219929, -0.070609, 0.388373, 0.213915, 0.041588, 0.044615, -0.012403, -0.053326, -0.138861, -0.022056, -0.054449, -0.431143, 0.009377, -0.052741, 0.157173, -0.248173, 0.300271, 0.184163, -0.074480, -0.290842, -0.048911, 0.404607, -0.206700, -0.192554, -0.195868, -0.152677, -0.054700, 0.145067, -0.170208, -0.198348, -0.009635, -0.008101, 0.207076, 0.045303, -0.229846, 0.044415, -0.084724, 0.151748, -0.227666, 0.298598, 0.024646},
    {0.112290, -0.032497, 0.156644, -0.111521, 0.180659, -0.060167, 0.059623, -0.237636, -0.043218, -0.195144, 0.092602, 0.137731, -0.145388, 0.013524, 0.273926, -0.024100, 0.059726, 0.067469, -0.014589, 0.119609, 0.020232, 0.223044, -0.243542, -0.126953, 0.016427, 0.072195, 0.028696, 0.064906, -0.056962, -0.164192, -0.004970, 0.001546, -0.103526, -0.025112, 0.008073, 0.087925, -0.260818, 0.199752, 0.100292, 0.094379, 0.154476, 0.074135, -0.013029, -0.114188, -0.021459, -0.028512, -0.191423, 0.221474, -0.031718, 0.104996, -0.064507, 0.006439, 0.276257, 0.065525, -0.034726, 0.266140, -0.168177, -0.139534, -0.134815, -0.076504, -0.221973, 0.013541, -0.061299, -0.166211, 0.076509, 0.058909, 0.012362, 0.238931, -0.009105, -0.048458, -0.033147, -0.112426, -0.181401, -0.013907, -0.024710, 0.253054, -0.155187, -0.032834, -0.024663, 0.075925, 0.071441, -0.000521, -0.082435, 0.042614, -0.024171, 0.059075, 0.124853, -0.065978, -0.072739, 0.155501, 0.145027, 0.056555, 0.155308, -0.075169, 0.049753, -0.009484, -0.051278, 0.012524, -0.326096, -0.080656, 0.062084, -0.145110, -0.268192, 0.275840, 0.075323, -0.058352, -0.096269, -0.161303, 0.197877, -0.182974, -0.189802, -0.207727, -0.050098, -0.006796, 0.194687, 0.021779, -0.018021, -0.188910, 0.065405, 0.274335, -0.088555, -0.234012, 0.204203, 0.047070, -0.052726, 0.041200, 0.023822, -0.097939},
    {-0.013684, 0.089006, 0.047204, -0.018975, 0.060948, -0.146552, 0.044023, 0.044834, 0.019553, -0.073566, 0.070709, -0.106421, -0.051699, 0.027332, -0.141485, -0.023828, -0.079431, 0.089910, 0.061019, -0.142084, -0.096987, -0.090154, -0.028853, -0.032043, -0.027924, 0.022024, 0.074810, 0.005694, -0.059199, 0.058127, 0.005750, -0.010380, 0.035395, 0.098524, 0.022472, 0.045645, -0.004012, -0.049052, -0.015023, -0.037959, 0.022297, -0.037641, -0.011752, 0.066780, -0.102053, -0.022634, -0.024584, -0.008450, -0.056059, 0.030437, -0.157089, 0.093732, 0.124266, -0.079480, 0.029630, -0.059832, 0.016757, 0.016907, -0.071158, 0.057732, -0.009565, -0.044291, -0.053841, 0.011299, 0.075607, -0.037538, 0.074921, -0.100073, 0.063801, 0.010413, -0.057152, 0.059447, 0.102454, 0.041291, 0.096720, -0.041282, 0.035419, -0.059005, 0.043192, -0.137854, -0.043193, 0.148820, 0.026955, 0.075611, 0.045052, -0.012451, 0.032151, -0.032077, 0.009751, 0.075100, -0.037414, 0.026804, 0.064326, -0.055179, 0.084042, -0.002004, -0.046925, -0.008150, -0.009671, 0.016735, 0.002609, 0.095923, -0.102610, 0.076937, 0.030964, -0.043645, 0.017239, -0.051863, -0.073393, -0.048186, 0.023133, -0.061767, -0.025449, 0.006584, 0.045370, 0.016642, -0.018381, 0.079361, 0.015884, 0.030920, 0.040241, -0.126613, -0.088043, -0.055469, 0.024176, -0.045975, -0.067891, 0.066805},
    {-0.044908, -0.021550, 0.024355, 0.023299, 0.000577, -0.087555, 0.019130, 0.060196, 0.054987, 0.060271, 0.015179, 0.001899, -0.041760, 0.082188, -0.104884, 0.076991, 0.038079, -0.096358, -0.007080, -0.032615, 0.011102, -0.093543, 0.028232, -0.016138, -0.027599, -0.032186, -0.003464, 0.021356, -0.072618, -0.030504, -0.079639, -0.047919, 0.061621, 0.106018, -0.047856, -0.064839, -0.090900, -0.015859, 0.033461, -0.001034, -0.048876, 0.058933, 0.038247, 0.067193, 0.080253, -0.061867, 0.088556, -0.069768, -0.067506, 0.072327, -0.062496, 0.094981, 0.007831, 0.084360, -0.046976, -0.188821, -0.062906, 0.029118, 0.055078, -0.029966, -0.045194, 0.043897, 0.022052, -0.004106, 0.102047, 0.011648, 0.013496, -0.039528, -0.090571, -0.055649, -0.056826, 0.066654, 0.109580, -0.024706, 0.101543, -0.136726, -0.048350, -0.130719, 0.098668, -0.127483, 0.049533, 0.147376, 0.008521, 0.123624, 0.102113, 0.044826, -0.187374, -0.061515, 0.044129, -0.043004, -0.062790, 0.077051, 0.140924, -0.129963, 0.000291, -0.023738, -0.062244, -0.037623, 0.109458, -0.079012, -0.077752, 0.084078, 0.031561, -0.070631, -0.127846, 0.047727, 0.033367, 0.116503, -0.199699, 0.022997, 0.076434, -0.048699, 0.041209, -0.160638, -0.062471, -0.003098, 0.070428, -0.042568, -0.066300, 0.090316, -0.001309, -0.067603, 0.044948, -0.116341, -0.040273, 0.151638, 0.021147, 0.079754},
    {-0.123088, -0.030748, -0.039493, 0.054576, -0.056721, 0.070341, -0.009401, 0.006247, 0.341979, -0.053505, 0.053442, 0.103600, 0.046787, -0.103340, 0.042861, 0.038702, -0.096783, -0.286744, -0.218310, -0.091764, -0.104130, -0.053282, -0.038088, 0.118957, -0.179799, -0.196636, -0.056408, 0.064184, -0.179228, -0.046143, 0.050994, -0.052707, -0.287018, 0.213465, 0.057294, 0.032323, -0.100094, 0.009600, -0.010575, -0.086314, 0.010092, 0.089551, -0.157491, -0.033132, -0.033707, 0.077241, 0.135076, -0.062867, -0.058786, 0.057931, -0.001047, 0.158278, 0.219867, 0.084064, -0.058355, 0.062705, -0.071780, 0.018748, 0.209371, -0.191648, -0.103771, 0.020086, -0.182766, 0.016593, 0.049809, 0.013501, 0.023432, -0.405844, 0.036142, 0.137649, -0.210487, 0.204127, 0.168460, 0.011168, 0.039755, -0.025312, -0.075468, -0.073718, 0.124334, -0.124414, 0.037293, -0.010867, 0.050325, 0.221109, 0.121708, -0.201173, -0.192715, 0.001457, -0.032205, -0.261200, -0.155214, -0.044427, 0.229092, -0.083204, -0.064680, -0.034517, 0.090472, -0.004984, -0.081369, -0.020915, 0.261559, 0.030023, -0.093138, -0.078087, -0.178784, 0.313405, 0.235445, 0.036479, -0.095075, 0.133324, 0.146313, -0.015927, -0.040786, -0.077190, -0.009654, 0.021414, 0.134618, -0.050298, 0.078835, -0.051156, -0.143677, 0.000360, -0.065304, 0.075300, -0.253779, -0.085319, -0.076459, -0.049661},
    {-0.033715, 0.147955, 0.004202, 0.095486, 0.056780, 0.128455, -0.005662, -0.117202, 0.306102, 0.026039, 0.100998, 0.207567, 0.223470, -0.043595, 0.237114, 0.016476, -0.063766, -0.044330, 0.067173, -0.039752, 0.154669, 0.104050, -0.043762, 0.005428, -0.145499, -0.267792, -0.074634, 0.031697, -0.166960, -0.141361, -0.009298, -0.206376, -0.312757, 0.433744, 0.046367, 0.009189, -0.005598, -0.077610, 0.061413, -0.267141, -0.023188, -0.085789, -0.203065, -0.180363, -0.180584, 0.365707, 0.127074, -0.125720, -0.131453, -0.155609, -0.005733, 0.071394, 0.121393, 0.070616, -0.008376, 0.130278, -0.063757, 0.029624, 0.180711, -0.084373, -0.162013, -0.015917, -0.199100, 0.132464, 0.077383, 0.046591, 0.298456, -0.384984, 0.106201, 0.263711, -0.284606, 0.226677, 0.052088, -0.024239, -0.041967, 0.091690, -0.112138, -0.009494, 0.093026, -0.035093, 0.054297, -0.170924, -0.154508, 0.076238, -0.059952, -0.417724, -0.098120, -0.008365, -0.052851, -0.279030, -0.133408, 0.143698, 0.166015, 0.072179, -0.224453, -0.032130, 0.000408, -0.097461, -0.248393, -0.171370, 0.248713, 0.004577, -0.373882, -0.064713, -0.256077, 0.323806, 0.065575, -0.124649, -0.068062, 0.057074, 0.128036, 0.240467, -0.045253, 0.333379, -0.019289, 0.013839, 0.331910, -0.160427, -0.170505, -0.067732, 0.022098, -0.039720, -0.147492, 0.001687, -0.171608, -0.087940, 0.010112, -0.124082},
    {0.183965, 0.077493, 0.001881, 0.192182, 0.010072, 0.080361, -0.141110, 0.110817, 0.225515, -0.127418, 0.143319, 0.393250, 0.517503, -0.304055, 0.101128, -0.063519, -0.017902, 0.088353, 0.174677, 0.065049, 0.258623, -0.105207, -0.080895, 0.007179, -0.020240, 0.045419, -0.203651, 0.020497, -0.254674, -0.021646, -0.468706, -0.024952, -0.012715, 0.400183, -0.285382, -0.247597, -0.024677, -0.077580, 0.280477, -0.295215, -0.107145, -0.040892, -0.321843, -0.324574, -0.163899, 0.568180, 0.002901, -0.489185, -0.020176, -0.266994, -0.149998, -0.024906, -0.173230, 0.048392, -0.068264, 0.183436, 0.057241, 0.048433, 0.159409, 0.165283, 0.042856, 0.130164, -0.136052, 0.089369, -0.288275, -0.277966, 0.222907, -0.244657, -0.024295, -0.042301, -0.194847, 0.200109, -0.113549, -0.347590, 0.216087, 0.209603, -0.161876, 0.123833, 0.016127, -0.045135, 0.097879, -0.181561, -0.154345, 0.193739, -0.285970, -0.542315, 0.192788, 0.352902, 0.011763, -0.219090, -0.004105, 0.380444, -0.042355, -0.056972, -0.181551, 0.053238, -0.006387, -0.444264, 0.062464, -0.143454, 0.328388, 0.051106, -0.175441, -0.074387, -0.272909, 0.170962, 0.123856, 0.192917, -0.002305, -0.060704, 0.287829, 0.204335, -0.107446, 0.343071, 0.031520, -0.042378, 0.412309, -0.285130, -0.028813, -0.378215, -0.165697, -0.009825, -0.168678, 0.082695, 0.214778, 0.080190, -0.007842, -0.317422},
    {0.166867, 0.233316, 0.130292, 0.275454, 0.002806, -0.053904, -0.070852, 0.150342, 0.285914, -0.215110, 0.048282, 0.124297, 0.456655, -0.481642, 0.009085, 0.070444, -0.195898, 0.135509, 0.291547, -0.023593, 0.145274, -0.106742, -0.127553, 0.006387, 0.010743, -0.058208, -0.102881, -0.150170, -0.096323, -0.139329, -0.564561, 0.298918, 0.267561, 0.562275, -0.270278, -0.167134, -0.114062, -0.168584, 0.211755, -0.275318, -0.116202, -0.000323, -0.430903, -0.150712, -0.058170, 0.687495, -0.069466, -0.558567, -0.079867, -0.164919, -0.126993, -0.015659, -0.199100, -0.132363, 0.018210, 0.184989, 0.036843, 0.008464, -0.070479, 0.278687, -0.031799, 0.002897, -0.133351, -0.180408, -0.252133, -0.260205, 0.269956, -0.151609, 0.114635, 0.277522, -0.232599, 0.275655, -0.062894, -0.199205, -0.111689, 0.313435, -0.105150, -0.023507, 0.130879, 0.005785, 0.013322, -0.249264, -0.040441, 0.008393, -0.287505, -0.533082, 0.228174, 0.355065, 0.008660, -0.016222, 0.092955, 0.381716, -0.037873, -0.173800, -0.110915, 0.125964, -0.155205, -0.346402, 0.056085, -0.069077, 0.398755, -0.150945, -0.290632, -0.181310, -0.209641, 0.190771, 0.202752, 0.298385, 0.049674, -0.269275, 0.038305, 0.234025, 0.121264, 0.297712, -0.082166, 0.080541, 0.328860, -0.332580, 0.079207, -0.464815, -0.169822, -0.060170, -0.315241, 0.005867, 0.152564, 0.108590, 0.044610, -0.377712},
    {-0.038178, 0.287603, 0.177130, 0.194282, -0.103033, 0.147511, -0.168981, -0.010144, 0.276218, 0.023230, -0.161480, 0.203384, 0.417011, -0.410803, 0.047143, 0.007170, -0.339488, 0.063909, -0.000097, -0.159620, -0.092649, -0.261773, -0.381004, 0.156952, 0.183333, -0.251713, 0.125950, 0.072281, 0.027514, -0.072578, -0.560046, 0.164079, 0.340192, 0.233716, -0.152360, -0.112235, -0.075039, -0.227774, -0.022687, -0.274238, -0.119188, 0.150242, -0.241371, 0.043324, 0.224271, 0.548542, 0.150795, -0.435201, -0.128366, -0.233906, 0.233062, -0.059634, -0.098862, 0.018170, 0.140591, 0.087957, 0.054897, -0.127568, -0.023338, 0.321444, 0.112390, 0.035623, -0.137543, -0.012663, -0.215103, -0.319795, 0.361645, 0.152210, 0.124540, 0.436558, -0.016011, 0.502100, -0.076366, -0.119681, -0.230810, -0.139730, -0.459188, 0.035112, -0.022804, -0.017803, 0.121503, -0.338372, 0.225675, -0.017684, -0.243351, -0.521258, 0.240829, 0.212495, 0.251506, 0.010539, -0.117902, 0.405948, -0.322811, -0.083857, 0.019315, -0.325716, -0.403640, -0.339788, 0.204533, -0.030398, 0.416837, -0.081539, -0.048741, -0.190758, -0.179346, 0.126876, 0.264603, 0.052065, 0.015671, -0.322712, 0.069898, 0.272071, 0.111058, 0.074806, -0.135927, 0.159849, 0.105535, -0.177703, 0.011573, -0.452175, 0.156536, -0.094417, -0.365244, -0.172454, -0.011564, 0.248048, -0.073288, -0.343119},
    {-0.246176, 0.249499, 0.161624, 0.200710, -0.287860, 0.393159, 0.076858, -0.085572, 0.358377, 0.063578, -0.251920, 0.306819, 0.089260, -0.409467, -0.060966, 0.046225, -0.416198, 0.003841, -0.126265, -0.061640, 0.052204, -0.178332, -0.202275, 0.216426, -0.020275, -0.191267, 0.097197, 0.285070, 0.005224, -0.028810, -0.446554, 0.173637, 0.203772, 0.061456, -0.129873, -0.008993, 0.030965, -0.127260, 0.001021, -0.203946, -0.154186, 0.149315, -0.126951, 0.097893, 0.206099, 0.509618, 0.310752, -0.351087, -0.097830, -0.334263, 0.252472, -0.129562, -0.151526, -0.081026, 0.330306, 0.113142, 0.016204, -0.119191, -0.099642, 0.165844, 0.431091, -0.177095, -0.295934, -0.135464, 0.194178, -0.290877, 0.264921, -0.023929, 0.241799, 0.465181, 0.214812, 0.597247, -0.178335, 0.162592, -0.087400, -0.228816, -0.488691, -0.088894, -0.152808, 0.183447, 0.294002, -0.139799, 0.307995, 0.196921, -0.119481, -0.527248, 0.251059, -0.061458, 0.247397, 0.054032, 0.011764, 0.224088, -0.102468, -0.161114, 0.357354, -0.436714, -0.400534, -0.230837, 0.156575, 0.065977, 0.378389, 0.026370, 0.037066, -0.262156, -0.276991, 0.222589, -0.086691, -0.217072, 0.072938, -0.107572, -0.207208, 0.285675, 0.442299, -0.037682, -0.075805, 0.374861, 0.089905, -0.062535, 0.091321, -0.196107, 0.036457, 0.055544, -0.497723, -0.312893, -0.241570, -0.081939, -0.045998, -0.458168},
    {-0.316626, 0.000040, 0.009026, 0.406785, -0.451401, 0.562996, 0.007589, -0.114602, 0.284791, -0.049116, -0.091405, 0.149029, -0.105144, -0.534126, -0.361498, -0.315296, -0.319779, -0.158774, -0.437523, -0.100944, 0.245802, -0.116375, -0.442119, 0.407537, -0.162564, -0.147071, 0.026576, 0.215997, -0.028664, -0.172755, -0.091666, 0.124001, 0.226564, 0.187210, -0.065915, -0.034200, 0.062032, 0.035669, 0.211293, -0.281964, 0.017028, 0.264421, 0.131287, 0.241213, 0.339889, 0.427118, 0.150523, 0.025373, -0.197216, 0.029859, 0.140507, 0.040500, 0.009232, 0.079763, 0.347347, -0.003592, -0.205056, 0.051686, -0.011517, -0.114149, 0.537893, -0.079292, -0.400585, -0.074597, 0.041585, -0.370473, 0.275340, -0.102508, 0.047782, 0.514506, 0.398937, 0.463965, -0.469869, 0.372100, -0.170724, -0.202795, -0.571893, -0.301715, -0.186196, -0.045133, 0.380044, -0.219329, 0.109499, 0.225623, -0.101692, -0.542103, 0.246718, -0.193707, 0.048754, -0.135155, 0.242842, -0.007766, -0.126535, 0.036192, 0.207895, -0.275621, -0.278431, 0.067835, 0.277243, -0.120227, 0.140158, 0.055191, 0.314990, -0.352085, -0.196929, 0.278263, -0.083331, -0.284454, 0.007070, 0.087351, -0.135155, 0.314604, 0.362746, -0.060119, 0.024545, 0.015245, 0.040330, 0.196584, 0.029177, -0.626490, 0.171364, 0.249569, -0.480181, -0.200390, -0.079787, -0.132174, -0.082814, -0.114533},
    {-0.256960, 0.207622, -0.106214, 0.602703, -0.303240, 0.720841, -0.233522, -0.098871, 0.089639, -0.001532, -0.396491, 0.018604, -0.396007, -0.532825, -0.473677, -0.189000, -0.333713, -0.114202, -0.480179, -0.322948, 0.348287, 0.033839, -0.514821, 0.514464, 0.034365, -0.281675, 0.032945, 0.164096, 0.203608, -0.298470, 0.359826, 0.237246, 0.365753, 0.236813, 0.259580, 0.138390, 0.200341, 0.108590, 0.189452, -0.219838, -0.089727, 0.192281, 0.064560, 0.188332, 0.418719, 0.127355, 0.221415, 0.032396, -0.009235, -0.099354, 0.091015, 0.138995, 0.026475, -0.090275, 0.258651, -0.267048, -0.313780, -0.223451, -0.125721, -0.246305, 0.197128, 0.136199, -0.430210, 0.114763, -0.006700, -0.307392, -0.014798, -0.087293, 0.105599, 0.424049, 0.286339, 0.400276, -0.248046, 0.576806, -0.180451, -0.309848, -0.391374, -0.328311, 0.002266, -0.052059, 0.255059, -0.312807, 0.231926, -0.250198, -0.076328, -0.578812, 0.255871, -0.169119, 0.097015, -0.419928, 0.269088, 0.180107, -0.189153, -0.003296, 0.011275, -0.259195, -0.141217, 0.155363, 0.786311, -0.277040, 0.088421, -0.026755, 0.580917, -0.210669, -0.170851, 0.057628, 0.177776, 0.065864, -0.190936, 0.242103, 0.004743, 0.000425, 0.300829, -0.385559, 0.096624, -0.078550, -0.103745, 0.305305, -0.083210, -0.594307, 0.261966, 0.405096, -0.400353, -0.123679, -0.161567, 0.192776, -0.313706, -0.086977},
    {-0.162725, 0.046617, -0.426660, 0.460901, -0.453663, 0.514328, -0.261893, -0.005612, -0.129104, 0.105601, -0.313245, 0.193400, -0.171778, -0.615309, -0.046192, -0.005456, -0.376675, -0.071081, -0.213012, -0.547430, -0.001641, 0.171821, -0.657996, 0.236508, 0.037262, -0.268101, 0.064534, 0.232417, 0.243463, -0.583691, 0.249379, 0.254855, 0.042058, 0.079531, 0.203246, 0.115350, 0.252070, -0.112198, -0.110753, -0.220517, -0.256207, 0.018534, -0.029757, 0.237945, 0.044585, 0.252661, 0.210243, 0.143091, -0.328519, -0.148440, 0.231946, 0.227660, -0.009334, -0.355036, 0.300884, 0.168231, -0.525741, -0.070313, -0.030532, 0.032347, -0.287966, 0.360329, -0.396583, -0.035617, 0.041508, -0.361540, -0.317533, 0.097387, 0.293719, 0.319388, 0.077215, 0.572366, -0.162343, 0.341342, -0.145256, -0.376875, -0.107524, -0.343416, 0.059158, -0.055127, -0.177045, -0.112534, -0.015025, -0.106175, -0.223296, -0.396202, 0.340680, 0.085378, 0.218933, -0.305389, 0.292774, -0.020538, -0.234678, 0.053825, -0.118760, -0.237819, 0.044508, -0.032595, 0.436482, -0.331391, -0.061313, -0.321112, 0.048952, -0.139349, -0.280393, -0.080143, 0.276523, 0.127883, -0.137554, 0.010584, 0.099078, -0.046707, 0.265513, -0.088778, 0.076038, 0.074961, -0.001881, 0.086848, 0.003806, -0.442590, 0.021166, 0.086010, -0.221696, -0.023520, -0.042438, 0.097658, -0.378821, -0.168477},
    {-0.125401, -0.017206, -0.538250, 0.087236, -0.342391, 0.262873, -0.325933, 0.147684, -0.302277, -0.013056, -0.241731, 0.186354, 0.161591, -0.541034, -0.016072, 0.201931, -0.424303, 0.080973, -0.110482, -0.293535, -0.011883, -0.205957, -0.148846, 0.175579, 0.049211, -0.289221, -0.130384, 0.059503, 0.131790, -0.808996, 0.136962, 0.316156, 0.049145, 0.155858, 0.129670, 0.012784, 0.064762, 0.197364, -0.011207, -0.449996, -0.491699, -0.177031, -0.069481, 0.165266, -0.004976, 0.118771, 0.110522, 0.361908, -0.204813, 0.116413, 0.253686, -0.066845, 0.097721, -0.417452, 0.273342, 0.297527, -0.408987, -0.061876, -0.088053, 0.124516, -0.141862, 0.356898, -0.308252, -0.110255, 0.077505, -0.283848, -0.259809, -0.127605, 0.242787, 0.232175, -0.126104, 0.752940, -0.161099, -0.033707, -0.048547, -0.568808, 0.216523, -0.186633, 0.030605, 0.039607, -0.212959, -0.248164, -0.007960, -0.035153, -0.335898, -0.552574, 0.375239, -0.091658, 0.142104, 0.025726, 0.344143, -0.312301, 0.034591, -0.059795, -0.142241, -0.126720, -0.093280, 0.075383, 0.167424, -0.468000, 0.086897, -0.271242, 0.141231, -0.239379, -0.175961, 0.029913, 0.214159, 0.056363, -0.107336, 0.203569, 0.438891, 0.180102, 0.014253, 0.059199, 0.078283, 0.324127, -0.102620, 0.197628, 0.195968, -0.386312, 0.006208, 0.158231, -0.253031, -0.307221, 0.129930, 0.062715, -0.464751, 0.006288},
    {-0.064968, 0.237394, -0.337153, -0.223777, -0.428780, 0.013223, -0.379317, -0.081306, -0.656010, -0.280610, -0.043378, 0.231516, 0.357456, -0.398512, 0.119284, 0.412305, -0.475501, -0.122520, 0.062512, -0.085937, -0.020523, -0.431678, -0.048236, 0.118797, 0.143455, 0.062902, -0.180700, 0.169579, -0.099457, -0.469274, 0.139955, 0.096942, 0.157767, 0.116275, 0.231547, -0.000564, -0.090522, 0.251741, -0.183110, -0.360865, -0.461975, -0.112942, -0.359754, -0.009444, 0.130092, -0.061590, 0.034079, 0.456798, -0.198060, 0.246360, 0.251997, 0.039853, 0.095235, -0.469365, -0.017827, 0.332679, -0.447118, 0.050349, -0.445049, 0.171788, 0.015074, 0.177569, 0.128895, 0.021818, -0.080297, -0.258502, -0.073300, -0.252642, 0.217632, -0.044626, -0.133798, 0.277517, -0.329043, -0.172365, 0.069722, -0.545075, 0.220022, -0.085517, 0.080284, 0.133208, -0.293896, -0.241698, 0.020011, 0.132557, -0.249454, -0.459675, 0.339349, -0.189767, -0.118732, 0.138050, 0.178355, -0.135836, -0.000810, 0.065730, 0.017660, 0.188182, -0.234303, 0.078181, 0.140716, -0.593427, -0.043752, -0.151390, 0.040367, -0.105432, -0.165191, 0.120396, 0.066806, -0.067766, -0.149558, 0.091662, 0.450955, 0.017519, -0.344763, 0.193349, -0.142819, 0.334238, -0.078739, -0.104289, 0.170982, -0.413446, -0.091441, -0.028304, 0.034628, -0.510778, -0.131528, -0.029687, -0.376902, 0.026766},
    {-0.120149, 0.242780, -0.081817, -0.180365, -0.425357, -0.003632, -0.358442, -0.230991, -0.490435, -0.203483, -0.146878, 0.028117, 0.260567, -0.266432, 0.138294, 0.378986, -0.332710, -0.436125, -0.107680, -0.022962, 0.094552, -0.273511, 0.236108, 0.089700, 0.221171, 0.030094, -0.284535, 0.191467, -0.212709, -0.290763, 0.101038, 0.104679, 0.103881, 0.076673, 0.274326, 0.009841, 0.121438, 0.094292, -0.328995, -0.488817, -0.464845, 0.004528, -0.609079, -0.254134, -0.117644, -0.243485, 0.340215, 0.162833, -0.124633, 0.296090, 0.143339, 0.283169, -0.014766, -0.316210, -0.005690, 0.432747, -0.215181, -0.148315, -0.478989, 0.182351, 0.003372, 0.198457, 0.016341, -0.030654, -0.003568, -0.177038, 0.030381, -0.272355, 0.043309, -0.003267, 0.117332, -0.064976, -0.016304, 0.140227, 0.086957, -0.417736, 0.482278, -0.183596, 0.099126, -0.101865, -0.244647, -0.417187, -0.073892, 0.065485, -0.315903, -0.455304, -0.087253, -0.055785, -0.357902, -0.220139, 0.120451, 0.150863, -0.248296, -0.089515, 0.195867, 0.394623, -0.258997, 0.147559, 0.084842, -0.547507, -0.196836, 0.233558, 0.204529, -0.465293, -0.037810, 0.022097, 0.128019, -0.066704, -0.196543, -0.048646, 0.325478, 0.020052, -0.398751, 0.083701, -0.395875, 0.330718, -0.049492, -0.032662, -0.116623, -0.640004, -0.192200, -0.063401, 0.279513, -0.258388, -0.006986, -0.044853, -0.226319, 0.148626},
    {-0.156454, -0.029397, -0.138640, -0.187653, -0.263313, 0.119142, -0.402583, -0.061000, -0.139566, 0.081630, 0.017895, -0.090407, 0.108777, -0.333581, 0.350388, 0.197758, -0.352977, -0.216648, -0.263202, 0.148833, 0.012904, -0.145456, 0.024344, 0.211235, 0.020357, -0.119852, -0.184689, 0.182134, -0.536045, -0.246834, 0.285203, -0.041182, -0.131419, 0.034601, 0.105579, 0.026424, -0.043471, 0.247842, -0.322551, -0.448311, -0.551100, 0.165687, -0.393447, 0.017109, -0.057095, -0.304547, 0.469191, 0.080006, 0.155103, -0.063717, 0.357655, 0.039744, 0.117781, -0.397555, -0.107588, 0.269197, -0.066084, -0.002653, -0.265980, 0.099136, 0.004920, -0.054324, -0.091640, -0.073382, -0.060270, -0.124019, -0.127680, -0.116573, -0.030362, -0.017630, -0.060476, -0.685349, -0.016089, 0.287917, 0.169845, -0.115397, 0.049683, -0.024738, 0.067024, -0.360091, -0.149060, -0.489261, -0.126323, 0.004077, -0.023134, -0.328042, -0.320659, -0.035976, -0.504179, -0.112790, 0.146601, -0.044794, -0.364750, -0.021543, 0.182648, 0.446577, -0.084603, 0.125766, 0.197366, -0.631489, -0.254680, 0.132074, 0.290084, -0.270529, -0.059179, -0.082858, -0.015140, -0.070678, -0.297671, -0.143801, 0.077718, 0.221603, -0.466610, -0.008278, -0.230411, 0.334748, -0.007879, 0.078485, 0.131674, -0.637404, -0.017854, 0.097423, 0.366833, 0.132541, 0.044777, 0.139452, -0.237420, -0.061563},
    {-0.172510, -0.000131, 0.093307, -0.079413, -0.090970, -0.022985, -0.169057, -0.074133, -0.061983, -0.114030, 0.161421, -0.149998, 0.131957, -0.333495, 0.411332, -0.124656, -0.314073, -0.248194, -0.036619, 0.058384, -0.195164, -0.308764, 0.139726, -0.004795, 0.165115, 0.069131, 0.013926, 0.144412, -0.645038, 0.030554, 0.279742, 0.015795, -0.077300, 0.300755, 0.063668, 0.090262, -0.341997, 0.164352, -0.281111, -0.428864, -0.559518, 0.028485, -0.511722, 0.093912, -0.346069, -0.215525, 0.227574, 0.059010, 0.221178, -0.113614, 0.439596, -0.068656, 0.096411, -0.274663, -0.098153, -0.007581, -0.180290, 0.008180, 0.067290, 0.215237, -0.309956, -0.242619, -0.210558, -0.113361, -0.073589, -0.144213, 0.067721, -0.080971, -0.117374, 0.229641, 0.070313, -0.946659, 0.002839, 0.012416, 0.102308, -0.181439, -0.075744, 0.055870, 0.302383, -0.341911, 0.007726, -0.530038, -0.374935, -0.047388, -0.030502, -0.426248, -0.175281, 0.090848, -0.325229, -0.086560, 0.174896, 0.109312, -0.145769, 0.044929, 0.191523, 0.458428, -0.306070, -0.039460, 0.128042, -0.352613, -0.187976, -0.019259, -0.122426, -0.031685, -0.102383, -0.235936, -0.106451, -0.080277, -0.076818, -0.077793, -0.080478, 0.213815, -0.106860, -0.023758, 0.101293, 0.457528, -0.133757, 0.149761, 0.338973, -0.620350, -0.031639, -0.073574, 0.287018, 0.091923, 0.191984, 0.312997, -0.315008, -0.376471},
    {-0.072466, 0.164236, 0.045033, -0.211039, -0.126259, -0.416249, -0.542768, -0.014159, 0.134477, -0.230789, 0.084820, -0.265537, 0.210253, -0.029271, 0.249401, -0.173929, -0.145948, -0.175327, -0.236731, 0.129185, -0.137370, -0.218455, 0.034479, -0.050502, 0.223853, 0.045515, 0.013495, -0.382378, -0.232391, 0.055085, 0.338137, 0.129430, 0.014068, 0.236496, -0.186088, 0.299648, -0.608291, -0.170032, -0.030005, -0.146084, -0.306228, -0.075654, -0.323508, 0.062297, -0.203954, -0.208634, 0.120651, 0.080895, 0.093500, -0.078071, 0.150348, 0.035532, 0.019825, -0.075182, -0.316847, -0.301440, -0.091824, 0.048778, 0.060349, 0.111202, -0.213115, -0.315993, -0.016160, 0.012998, -0.158125, 0.047155, 0.176035, -0.232433, -0.163310, 0.404710, 0.166238, -0.557909, 0.026098, -0.149435, 0.083483, -0.010924, -0.119412, 0.167052, 0.570312, -0.344135, -0.128927, -0.481893, -0.340521, 0.111882, -0.198982, -0.474815, -0.444940, 0.005069, -0.146389, -0.072995, 0.045903, 0.250617, -0.323401, 0.136648, 0.184485, 0.346637, -0.425614, 0.087878, -0.014802, -0.071472, -0.121745, -0.314290, -0.138963, -0.074146, -0.047620, -0.041940, 0.092654, -0.131956, 0.068610, -0.018779, -0.087826, 0.244066, 0.068897, -0.190373, 0.103938, 0.448720, -0.319178, 0.150851, 0.282427, -0.457332, -0.076881, 0.100669, 0.114596, -0.142917, -0.020969, 0.202530, -0.220754, -0.300146},
    {-0.078118, 0.114701, 0.040958, 0.003844, 0.078085, -0.591816, -0.603929, 0.130161, 0.194906, -0.180319, 0.182908, -0.223281, 0.225430, 0.183722, 0.038713, -0.097095, -0.031207, -0.072220, -0.279457, 0.046172, -0.304265, -0.294921, -0.081000, 0.020171, 0.212510, 0.068776, -0.011978, -0.600948, -0.294721, 0.079320, 0.159003, 0.086036, 0.089500, 0.055998, -0.111581, 0.232735, -0.538632, 0.053749, 0.172665, -0.071020, 0.003825, -0.054476, -0.237463, 0.061178, 0.017842, -0.567152, 0.141644, 0.004419, -0.140382, -0.008004, -0.176482, 0.401321, 0.148968, -0.102455, -0.136713, -0.193578, -0.050754, 0.178568, -0.107495, -0.112252, 0.069830, -0.272889, 0.287862, 0.174032, -0.333172, -0.092913, 0.030017, -0.168333, 0.077100, 0.472037, 0.408518, -0.253217, 0.117498, 0.027031, 0.032223, -0.013055, 0.142474, 0.164557, 0.411471, -0.348773, -0.136011, -0.573760, -0.335493, 0.035963, -0.070720, -0.350545, -0.500612, 0.025938, -0.264297, -0.040416, 0.404067, 0.216985, -0.070248, 0.082398, 0.048601, 0.098772, -0.536503, 0.164674, -0.113230, -0.023548, -0.154933, -0.376268, -0.079378, -0.118537, 0.134287, 0.066495, 0.280233, -0.309992, 0.046537, 0.230218, -0.131983, 0.015326, -0.002811, -0.023910, 0.195736, 0.261571, -0.355825, 0.190895, 0.235912, -0.394004, 0.136547, 0.088905, 0.223746, -0.357751, 0.221090, 0.103049, -0.629625, -0.202628},
    {-0.026283, 0.056620, -0.077497, 0.386079, 0.123686, -0.535188, -0.678914, 0.360298, 0.353341, -0.074706, -0.047293, -0.179292, 0.121657, 0.266339, -0.099465, -0.162087, -0.124768, -0.031406, -0.301323, -0.220900, -0.191733, -0.092993, -0.076014, 0.101241, 0.095822, 0.099216, 0.088689, -0.162317, -0.110427, 0.297688, -0.041818, 0.028628, -0.133339, 0.009257, -0.052332, 0.086713, -0.298805, 0.209551, 0.129548, 0.099493, 0.029754, 0.047324, -0.284518, 0.170973, 0.094882, -0.846600, 0.105365, 0.001520, 0.071490, -0.234260, -0.035514, 0.219403, 0.009754, -0.294224, -0.156324, -0.153324, -0.083988, 0.215300, -0.144610, -0.279421, 0.057593, 0.097753, 0.394333, 0.092515, -0.263993, -0.032507, 0.055745, 0.286427, 0.135687, -0.047478, 0.182657, -0.001116, 0.273486, 0.204815, 0.243241, -0.035788, 0.102326, 0.271884, 0.052411, -0.147978, -0.062454, -0.277349, -0.325133, -0.171798, -0.181862, -0.274772, -0.206440, -0.113783, -0.051518, 0.002268, 0.400734, 0.116632, -0.024266, 0.300217, 0.042362, 0.100423, -0.439604, 0.032386, -0.025856, -0.073334, -0.065031, -0.117868, -0.215282, -0.259616, 0.287723, 0.139812, 0.232210, -0.291180, 0.004317, 0.144005, -0.108603, 0.020405, 0.094670, -0.083182, 0.291194, -0.077287, -0.527851, 0.000071, -0.003563, -0.344844, 0.220201, 0.207930, 0.296596, -0.313157, -0.022255, 0.189625, -0.173890, -0.185366},
    {0.122574, -0.026110, 0.176746, 0.475772, 0.224613, -0.462807, -0.592346, 0.109995, 0.323071, 0.137912, 0.050997, 0.062542, -0.166925, -0.043112, -0.193618, -0.177477, 0.037305, -0.182541, -0.241884, -0.043432, -0.113645, -0.193435, 0.030427, 0.085355, -0.106365, 0.206566, -0.016009, -0.342645, 0.087888, 0.156921, -0.202145, -0.137807, -0.210656, 0.086552, -0.139011, 0.016226, -0.082210, 0.181200, -0.003069, 0.190899, -0.177797, 0.214391, -0.335486, 0.219082, 0.055250, -0.573406, 0.058850, -0.031353, 0.148055, -0.256196, -0.045924, 0.044079, 0.145419, -0.334976, -0.029479, -0.247548, -0.004394, -0.197349, -0.076242, -0.477939, -0.137732, 0.288785, 0.384742, -0.089239, -0.262677, 0.136398, -0.015669, 0.322483, -0.100091, -0.395108, -0.172418, 0.223829, 0.157121, 0.120464, 0.292525, -0.253266, 0.074228, 0.314401, -0.150544, 0.182731, -0.122616, -0.323143, -0.398259, -0.248014, -0.261151, -0.473463, 0.090248, -0.256071, -0.004877, 0.122528, 0.355334, -0.071656, -0.236298, 0.234353, 0.125953, 0.162691, -0.323205, 0.030940, 0.095967, 0.101678, 0.022928, -0.183801, -0.111870, 0.039872, 0.077819, 0.029261, -0.129634, -0.047016, -0.142503, 0.186384, -0.034455, 0.001262, 0.131076, -0.472643, 0.155460, -0.173926, -0.679978, 0.028963, -0.114255, -0.376008, 0.148317, 0.042491, 0.209488, -0.389712, -0.101654, -0.038611, -0.100991, -0.196510},
    {0.131908, 0.076799, 0.275002, 0.279043, 0.125309, -0.200037, -0.207390, -0.093065, 0.112377, 0.300126, 0.068839, 0.112114, -0.330660, -0.088201, -0.367227, -0.431470, -0.107732, -0.431741, -0.207148, -0.077721, 0.026517, -0.280923, -0.143632, -0.023155, 0.020463, -0.008604, 0.024747, -0.287715, 0.121690, -0.329693, -0.265836, -0.045266, -0.079093, -0.053719, -0.066957, -0.292734, -0.197448, 0.039683, -0.045774, 0.280346, -0.219896, 0.107260, -0.444358, 0.151106, -0.100924, -0.295943, -0.104155, -0.062356, -0.172039, -0.069587, 0.130812, 0.047049, 0.056778, -0.193231, -0.084413, -0.141621, 0.004853, -0.207974, -0.268952, -0.365772, -0.158649, 0.431869, 0.253262, -0.030592, -0.160489, 0.031923, 0.055427, 0.156628, -0.139774, -0.215878, 0.070567, 0.397095, 0.230080, -0.079571, 0.143955, -0.206063, 0.147512, 0.252471, -0.176583, 0.286546, -0.163526, -0.227276, -0.344228, -0.109888, -0.263240, -0.618290, 0.030220, -0.280543, -0.316806, -0.045900, 0.240019, 0.021290, -0.137311, 0.129401, 0.168332, 0.290141, -0.188717, -0.083293, 0.163871, 0.081571, -0.086376, -0.218978, 0.115214, 0.016808, -0.157715, -0.115206, -0.090913, 0.024533, -0.137166, 0.166795, 0.091932, -0.134417, -0.000248, -0.309551, -0.030489, -0.155924, -0.397419, -0.003615, 0.001935, -0.212149, -0.022389, -0.159396, -0.024715, -0.385859, -0.158459, -0.026359, -0.243708, 0.093358},
    {0.108049, 0.110823, 0.257916, -0.031687, 0.038014, -0.148517, -0.393276, -0.308137, 0.080405, 0.478234, -0.154698, 0.235377, -0.045908, -0.041306, -0.177234, -0.467726, -0.356921, -0.359848, -0.065931, -0.250636, -0.002325, -0.143189, -0.240654, 0.023009, 0.199120, -0.444942, -0.120732, -0.515947, 0.241722, -0.557571, -0.109810, 0.093595, -0.231142, -0.109327, -0.000215, -0.237315, -0.034679, -0.081832, -0.004974, 0.164011, -0.209412, -0.093319, -0.285064, 0.294279, -0.219614, -0.160881, 0.026222, 0.038815, -0.469479, -0.139216, 0.322060, 0.104086, -0.017604, -0.209164, -0.023275, -0.051923, -0.031618, 0.069959, -0.165829, -0.106330, -0.003070, 0.406927, 0.066070, 0.053920, -0.220442, 0.108747, 0.083645, -0.033937, 0.115712, -0.026722, 0.078556, -0.035731, 0.150166, 0.126300, 0.174335, 0.026141, 0.171615, 0.120010, -0.293489, 0.167496, -0.208709, -0.141977, -0.121098, -0.183578, -0.239570, -0.446743, -0.078831, -0.194487, -0.298602, -0.088681, -0.000576, 0.104580, -0.085889, 0.052811, -0.021813, 0.267375, 0.039625, 0.063850, 0.271060, -0.009898, -0.049281, -0.077361, 0.145243, -0.068526, -0.363910, 0.004570, 0.201728, -0.135017, -0.137094, 0.192530, -0.065003, 0.010922, -0.150795, -0.270186, -0.066149, -0.117295, -0.003370, -0.059064, -0.137864, -0.022113, -0.000555, 0.051060, -0.002845, -0.180065, 0.069344, 0.111485, -0.430729, 0.160859},
    {-0.011623, -0.023150, 0.152275, -0.055832, 0.086777, -0.202831, -0.413947, 0.032566, -0.080405, 0.223503, -0.141704, 0.028457, 0.063094, 0.176966, 0.076847, 0.166728, 0.060460, -0.088263, -0.110072, 0.088125, 0.028071, 0.215564, -0.313203, -0.022975, 0.092050, -0.306048, -0.060996, -0.357108, 0.137559, -0.199582, 0.050933, -0.022804, -0.330708, -0.166010, 0.028178, -0.231625, 0.078658, -0.083681, -0.215625, 0.014534, -0.130542, -0.244311, 0.058989, 0.210664, -0.136823, 0.051535, 0.121181, -0.127415, -0.196395, -0.051200, 0.399633, -0.001620, -0.090324, -0.111744, -0.021665, 0.197161, 0.030514, 0.164835, 0.086855, -0.020683, 0.035385, -0.178386, -0.277111, 0.075273, -0.209935, -0.185164, 0.011407, -0.253353, 0.431733, -0.138753, 0.131258, -0.189365, 0.063401, 0.055177, 0.086793, 0.167751, 0.117019, 0.052973, -0.084421, 0.184560, -0.272661, -0.050092, -0.127968, -0.142516, -0.204851, -0.060478, 0.042139, -0.086794, -0.181748, -0.143978, -0.097386, 0.204117, -0.047352, -0.016621, 0.099120, 0.264924, 0.114208, 0.154024, 0.234781, 0.173639, -0.163229, 0.151508, 0.013777, -0.270638, -0.244307, 0.143454, -0.124559, -0.121007, 0.024298, 0.151541, -0.039274, 0.035172, -0.222757, 0.056876, 0.027873, -0.171325, -0.020879, -0.072308, -0.250321, 0.020517, -0.086435, 0.288333, -0.001033, -0.136680, 0.079071, -0.120310, -0.431440, 0.270785},
    {-0.124395, 0.040459, 0.122544, -0.255260, 0.205825, -0.073005, -0.543273, 0.197270, -0.128675, -0.045945, -0.270220, -0.125854, 0.303890, 0.186135, 0.067117, 0.143421, 0.448732, -0.171496, 0.225410, 0.157875, -0.046440, 0.274616, 0.021412, -0.081025, 0.363189, -0.152616, -0.002092, -0.476475, -0.162647, 0.060630, -0.084521, 0.092726, 0.084213, -0.283677, -0.095142, -0.069342, 0.144022, -0.069543, 0.047686, -0.033250, 0.150650, -0.134008, -0.056647, -0.403493, 0.075918, 0.071249, 0.001570, -0.177712, -0.262196, -0.060410, 0.143869, -0.035327, 0.001355, -0.125391, 0.083836, -0.028184, 0.276151, 0.287719, 0.003687, -0.204468, 0.039506, -0.058716, -0.342557, 0.235018, -0.206636, -0.338987, 0.211207, 0.188648, 0.356396, -0.180793, 0.316516, -0.028784, 0.274057, 0.272270, 0.020278, 0.249344, 0.312265, -0.281811, 0.253725, 0.235408, -0.386389, -0.141658, -0.032340, 0.034578, -0.056602, -0.318704, 0.148565, 0.163122, 0.040838, -0.261269, 0.055770, 0.103870, -0.135703, 0.147550, -0.145850, 0.239019, -0.009300, 0.148808, -0.144325, 0.249533, -0.246383, 0.260156, -0.082048, -0.186456, -0.156456, -0.011880, 0.042230, -0.136167, 0.101090, 0.349063, -0.086553, 0.131766, -0.328202, -0.032959, 0.251419, -0.014733, -0.088609, 0.349150, 0.062203, 0.122983, 0.093250, -0.040165, -0.105653, -0.119322, 0.085882, 0.046486, -0.314229, 0.552344},
    {-0.107522, -0.129465, 0.073250, -0.199164, 0.063434, -0.101074, -0.595374, 0.315818, -0.184410, 0.086020, -0.043936, -0.091469, 0.127937, 0.259619, -0.109124, 0.197570, 0.467828, -0.259171, 0.179819, 0.311325, -0.245407, 0.033810, -0.056603, 0.023952, 0.229056, 0.246876, -0.000842, -0.335570, -0.329643, 0.079937, -0.037560, 0.082386, 0.040196, -0.184442, -0.105006, 0.029285, 0.101870, 0.214412, -0.016356, 0.008469, -0.195952, 0.061551, -0.002749, -0.446860, 0.167495, 0.288290, -0.047362, -0.300923, -0.110600, -0.229859, -0.106017, -0.058424, 0.095125, 0.043274, -0.139960, -0.107347, 0.493528, -0.031972, 0.179089, -0.264047, -0.019116, 0.172999, -0.166957, 0.259808, -0.037787, -0.093043, 0.140525, 0.263615, 0.201062, -0.243454, 0.249574, -0.066394, 0.063094, -0.016363, 0.269270, 0.513538, 0.336455, -0.086819, 0.280783, 0.269876, -0.340749, -0.350597, -0.172777, -0.287724, -0.027145, -0.045081, 0.149974, 0.151891, -0.212566, -0.049318, -0.171414, -0.106874, -0.486317, 0.209668, -0.028486, 0.164858, -0.022066, 0.209990, -0.178081, 0.157511, -0.171815, 0.217954, -0.087538, 0.051526, -0.028653, -0.059866, 0.148371, 0.142843, 0.034439, 0.314595, -0.002245, -0.001621, -0.178462, -0.055223, 0.060441, 0.146507, -0.278683, 0.443746, 0.132405, 0.046300, 0.068783, 0.020609, 0.091214, -0.044347, 0.207445, 0.048345, 0.045565, 0.649596},
    {-0.162264, -0.163386, 0.183001, 0.022799, 0.019340, 0.014487, -0.336509, 0.424057, 0.120625, 0.298006, -0.129551, -0.383157, 0.008979, 0.154753, -0.093123, 0.226085, 0.434380, -0.211819, -0.015674, 0.204674, -0.168009, 0.045298, -0.203477, -0.136817, 0.304902, 0.216214, -0.077858, -0.110568, -0.309253, 0.125118, -0.128801, 0.096856, 0.154841, -0.169112, -0.005202, 0.239190, 0.350807, 0.414416, 0.077733, -0.117048, 0.272203, 0.125684, -0.039875, -0.184155, 0.234079, 0.322877, -0.163002, -0.271749, -0.141652, -0.214095, -0.025066, -0.010029, 0.006663, -0.126414, -0.164298, -0.374085, 0.433297, -0.162891, 0.143554, 0.122858, -0.043697, 0.180909, -0.166131, 0.074946, -0.138390, -0.117062, -0.018832, 0.100743, 0.006798, -0.154411, 0.075859, -0.134081, -0.042939, -0.015439, 0.538147, 0.175990, 0.162173, -0.019361, 0.178188, -0.022378, -0.014108, -0.324794, -0.109744, -0.150390, 0.094206, 0.134421, 0.086798, -0.069257, -0.158153, 0.175123, -0.134268, -0.140318, -0.284888, -0.058325, -0.119091, -0.331272, 0.037918, 0.068428, -0.252668, 0.050016, -0.102077, 0.329463, -0.191366, 0.378677, -0.110776, 0.322837, -0.140191, 0.163904, 0.029677, 0.194083, 0.211236, -0.093544, -0.125461, -0.098933, -0.144947, -0.146138, -0.284934, 0.147425, 0.136697, 0.133985, 0.048483, 0.009503, 0.214799, 0.004048, 0.149923, -0.015268, 0.173936, 0.419261},
    {-0.209181, -0.108299, 0.137670, 0.037205, 0.073275, 0.020619, 0.030124, 0.182048, 0.163813, 0.191857, -0.053934, -0.245997, -0.064459, 0.160801, 0.147956, 0.226301, 0.516424, 0.055245, -0.105536, 0.344699, -0.138206, 0.295603, -0.381088, 0.033101, 0.240383, 0.201167, 0.090205, -0.173384, -0.195470, -0.046552, -0.121631, 0.096698, 0.279121, -0.343090, 0.186328, 0.182369, 0.276861, 0.260598, 0.112142, 0.092565, 0.443896, 0.102541, 0.161209, -0.232663, 0.226087, 0.274031, -0.207155, -0.084299, -0.007080, -0.180256, -0.012729, -0.110872, 0.249345, -0.200796, -0.134361, -0.203217, 0.108426, -0.092723, 0.069655, 0.109244, -0.049281, 0.199608, -0.093884, 0.017558, -0.188544, -0.244241, -0.212619, 0.177618, -0.161856, -0.312027, 0.167620, -0.137577, 0.036806, 0.074545, 0.369531, 0.348048, 0.097166, -0.175189, -0.125799, -0.222009, 0.001492, -0.246266, -0.114832, 0.043023, 0.105455, 0.288165, 0.190339, -0.127519, -0.010474, 0.283925, 0.019493, -0.085662, -0.066736, 0.040380, -0.219726, -0.282852, 0.025203, -0.037048, -0.186021, 0.215490, -0.162883, 0.247866, -0.305291, 0.185120, -0.147199, 0.372179, -0.252997, 0.202370, 0.061845, -0.057264, 0.074921, -0.280596, -0.068042, -0.028428, -0.122712, -0.265377, -0.329546, 0.042209, 0.236551, 0.388894, -0.060462, -0.150937, 0.177843, 0.110990, 0.324858, -0.127694, 0.205407, 0.128580},
    {0.125131, -0.303373, 0.151233, 0.004102, 0.157040, 0.029496, -0.003342, -0.353233, 0.113638, 0.035665, 0.065106, 0.003820, -0.000133, -0.014730, 0.120320, 0.208978, 0.202821, 0.235366, -0.037707, 0.046888, 0.003208, 0.281460, -0.293759, 0.095370, 0.069513, 0.101653, 0.079140, -0.087264, -0.325155, -0.255234, -0.127077, 0.123553, -0.190235, -0.233605, -0.252715, 0.122795, -0.112862, 0.180229, 0.056577, 0.243017, 0.401655, 0.005880, 0.130047, -0.322827, 0.160077, 0.038865, -0.073828, -0.006058, -0.004577, 0.310052, -0.128307, -0.007679, 0.315470, -0.212932, -0.023697, -0.178173, -0.290571, -0.152312, 0.034465, -0.066215, -0.272231, -0.072820, -0.145489, 0.128101, -0.087796, -0.052457, -0.078505, 0.238706, -0.218554, -0.174376, -0.054620, -0.141050, -0.026671, 0.071362, 0.159786, 0.195383, -0.054201, -0.169453, -0.060620, -0.041698, -0.011002, -0.014503, -0.070246, -0.016399, -0.005191, 0.097700, 0.210062, 0.003824, -0.049595, 0.167482, 0.231679, 0.117109, -0.156367, -0.190581, 0.051969, -0.006251, 0.022525, -0.061316, -0.204971, -0.042423, -0.166700, 0.010247, -0.391814, 0.323687, -0.065868, 0.063471, -0.098964, 0.176334, 0.000783, -0.288264, -0.083246, -0.164406, -0.124000, -0.001590, 0.284520, -0.007758, -0.271562, -0.082872, 0.312133, 0.314979, -0.231951, -0.011662, 0.133284, 0.205848, 0.069726, -0.132262, 0.074998, -0.130127},
    {0.012709, 0.093971, 0.101187, -0.029085, 0.088444, 0.100482, -0.036798, -0.009111, 0.125340, 0.088401, 0.133998, 0.039591, 0.283722, 0.051303, -0.096331, -0.005408, -0.057025, 0.148471, -0.176713, -0.009728, -0.158230, -0.161624, -0.027681, 0.111684, 0.012767, 0.143802, -0.060686, -0.012561, 0.054103, -0.028622, 0.068811, -0.020902, -0.075077, 0.142631, -0.038041, -0.033017, -0.091229, 0.020755, -0.054263, -0.030226, 0.011873, 0.007447, 0.025411, 0.150668, -0.096827, 0.089819, 0.017068, -0.101840, -0.110832, -0.044627, -0.152269, 0.039387, 0.021166, 0.075441, -0.017207, -0.037040, 0.044142, 0.125580, -0.236768, 0.103996, -0.136202, -0.070845, 0.070002, 0.030203, 0.160785, -0.068112, 0.054426, -0.231876, 0.056566, 0.150098, 0.071107, 0.034057, 0.076402, -0.123694, 0.100837, -0.114407, -0.065835, -0.185408, -0.140471, -0.016444, -0.008539, 0.036379, -0.053649, 0.162218, -0.174122, -0.080707, -0.089095, -0.155275, 0.002052, 0.056282, -0.037782, -0.026628, 0.146286, 0.073330, 0.085502, 0.005358, -0.057093, 0.051448, 0.195037, 0.046549, -0.225359, 0.079075, -0.091443, 0.007599, -0.053081, 0.100840, 0.028814, 0.159077, -0.012143, -0.106068, -0.089334, 0.050968, 0.032656, 0.001994, -0.070583, -0.056341, 0.075648, -0.079772, -0.053570, -0.063427, -0.002656, -0.043561, 0.071713, 0.041607, 0.095034, 0.070528, -0.022042, 0.042770},
    {0.005732, -0.055770, -0.001295, -0.085925, -0.021988, 0.133939, -0.037667, -0.104149, 0.078998, 0.006874, -0.003221, -0.011828, 0.104425, -0.120711, -0.069041, -0.084105, -0.012386, 0.271594, -0.149836, 0.024510, 0.041426, -0.021398, -0.032031, 0.071472, 0.053106, -0.038945, -0.041477, -0.041380, -0.022752, -0.032951, 0.178447, 0.013982, -0.070487, 0.138080, 0.048510, 0.001796, -0.075608, 0.046721, -0.025896, -0.033921, 0.000031, -0.037162, 0.077016, 0.078500, 0.019203, 0.172017, -0.008619, -0.163343, -0.090176, 0.012542, -0.104502, 0.072593, -0.004167, 0.103989, -0.096052, -0.029496, 0.053329, 0.026300, -0.138109, 0.143706, -0.023622, 0.098035, -0.015642, -0.115351, 0.054263, 0.051779, -0.053593, -0.079318, -0.021751, 0.220893, 0.001849, 0.052645, 0.082427, 0.030710, 0.011742, -0.230318, -0.006658, -0.075537, -0.157418, -0.111165, -0.007603, -0.123904, 0.052795, 0.016850, -0.144211, -0.048853, -0.121374, -0.060701, -0.107028, 0.099319, -0.027875, -0.027083, 0.126879, 0.086366, -0.037601, 0.220772, 0.043115, -0.055691, 0.136110, -0.043174, -0.167696, 0.009606, 0.011925, 0.065210, -0.078696, 0.042176, -0.121457, 0.177714, 0.098851, 0.136936, 0.031376, 0.115691, 0.019938, -0.049727, -0.102314, -0.018082, 0.195389, -0.063673, -0.005191, -0.065764, 0.069970, 0.069709, -0.004408, 0.159458, -0.065974, 0.022499, -0.074090, -0.041949},
    {-0.336764, 0.184885, 0.048456, 0.055344, 0.396779, 0.161448, -0.391263, -0.166938, 0.283333, -0.047229, 0.308436, -0.185935, 0.215650, -0.215968, 0.111807, 0.065433, -0.188403, -0.094404, -0.149906, -0.281623, 0.068106, -0.210737, 0.214438, 0.173525, -0.178432, -0.281245, -0.109365, 0.002598, -0.114204, -0.132569, 0.371741, 0.077336, -0.277995, 0.383142, -0.059147, -0.117237, -0.252768, -0.073432, -0.085321, -0.223641, -0.226739, 0.010627, -0.177003, 0.187986, -0.333320, 0.161306, 0.290141, -0.300519, 0.035323, -0.149519, -0.296840, 0.109198, -0.040213, 0.129349, -0.179685, 0.167697, -0.286087, 0.035828, -0.078257, -0.189518, -0.329403, -0.033309, -0.208474, 0.349524, 0.024049, 0.030913, -0.131242, -0.252109, 0.039403, 0.353941, -0.304504, 0.574719, 0.176164, 0.042790, -0.066297, -0.206840, -0.130207, -0.117990, -0.087204, -0.103282, 0.027963, -0.125213, -0.175894, 0.302588, -0.351156, -0.383567, 0.153327, 0.262099, -0.127477, -0.069827, -0.240885, 0.033545, 0.242462, 0.090028, -0.097232, 0.183716, 0.223945, -0.098330, -0.028703, 0.126942, 0.060967, -0.059462, -0.146747, -0.346430, -0.028706, 0.129595, 0.198579, 0.174953, 0.297162, -0.043602, -0.064744, 0.236256, 0.078901, 0.105311, -0.333431, -0.151775, 0.237183, 0.054517, 0.228763, -0.331489, -0.143950, -0.021291, 0.031198, 0.071723, -0.309375, -0.050734, -0.086196, 0.201196},
    {0.011693, 0.257747, -0.125622, 0.143265, 0.000618, 0.236464, -0.275808, -0.059557, 0.088493, 0.080450, 0.103548, 0.180584, 0.285128, -0.270603, 0.214155, -0.221251, -0.073072, -0.012583, 0.061108, -0.130869, 0.302399, 0.025286, -0.074598, 0.205982, -0.088227, -0.348601, -0.184072, -0.122812, -0.104328, -0.066975, 0.174992, 0.002098, -0.304282, 0.612002, -0.103081, -0.156475, 0.005447, 0.021476, 0.226509, -0.465594, -0.182900, -0.012987, -0.110020, 0.309301, -0.428293, 0.261526, 0.086688, -0.326424, -0.066606, -0.328993, -0.074758, -0.047724, -0.161773, -0.038314, -0.180496, 0.373515, -0.321411, 0.018512, -0.134962, -0.207205, -0.229152, 0.101297, -0.301667, 0.325926, 0.096215, -0.086255, 0.102956, -0.180896, 0.236918, 0.511573, -0.178989, 0.332776, 0.073836, 0.030127, 0.190183, -0.035418, -0.102721, 0.112758, -0.233156, -0.165058, 0.305723, -0.300618, -0.246599, 0.222422, -0.455382, -0.539088, 0.201840, 0.398934, -0.375365, -0.150871, -0.120992, -0.001427, 0.238854, 0.060041, -0.230218, -0.150050, 0.097816, -0.163303, 0.134291, -0.014655, -0.048146, -0.007181, -0.121249, -0.272053, 0.002096, 0.151221, 0.202064, 0.063139, 0.238497, -0.178103, 0.058148, 0.300509, -0.042250, 0.333650, -0.338318, -0.143289, 0.370417, -0.140311, 0.100256, -0.402356, -0.001153, 0.160980, -0.261337, 0.174234, -0.206456, 0.008651, -0.122156, -0.088920},
    {-0.028316, 0.195177, 0.041066, 0.120826, -0.336078, -0.169286, -0.056048, 0.141470, -0.054172, -0.320366, 0.220458, 0.263618, 0.479133, -0.460352, 0.146403, -0.188056, 0.088433, 0.009231, 0.280892, 0.130913, 0.250111, -0.016538, -0.262920, 0.242422, -0.063527, -0.004614, -0.415607, -0.355561, -0.175093, -0.135001, -0.149302, 0.052954, -0.305462, 0.491827, -0.269107, -0.173762, -0.088508, -0.076228, 0.372810, -0.347044, -0.097485, 0.048334, -0.193719, -0.224362, -0.253304, 0.160998, -0.097258, -0.434218, -0.025822, -0.197228, -0.098426, -0.484581, -0.024643, -0.224502, -0.470902, 0.462399, -0.069858, -0.054358, -0.069036, 0.011112, -0.082889, 0.052514, -0.224193, 0.042399, -0.418502, -0.283483, 0.203856, -0.077156, 0.097947, 0.114816, -0.175697, 0.377624, -0.167725, -0.329313, -0.055498, -0.059685, -0.241962, 0.133846, 0.170842, 0.009210, 0.276555, -0.249932, -0.152192, 0.350975, -0.328190, -0.569949, 0.219665, 0.389922, -0.136087, -0.028106, -0.003278, 0.068557, 0.127968, -0.022377, -0.142646, -0.166538, -0.023452, -0.252493, -0.070186, -0.161018, 0.387923, -0.036368, -0.211778, -0.115017, 0.202052, 0.023932, -0.041250, -0.050992, 0.219283, -0.122052, 0.280777, 0.319357, -0.177500, 0.267951, -0.528902, -0.229651, 0.296644, -0.405719, -0.055557, -0.532712, -0.075512, -0.068017, 0.024081, 0.083495, 0.165298, 0.062122, -0.063325, -0.327162},
    {-0.030792, -0.010553, 0.149927, 0.084205, -0.211608, -0.199390, -0.025443, 0.006861, 0.016168, -0.409171, 0.100663, 0.295267, 0.453069, -0.577899, 0.186399, -0.079742, 0.026947, 0.054255, 0.254533, 0.163680, 0.074513, -0.247376, -0.101510, -0.012365, -0.095683, 0.010729, -0.370511, -0.378472, -0.223994, -0.025969, -0.468215, 0.102993, 0.064257, 0.379649, -0.247385, -0.063958, -0.112407, -0.022584, 0.216845, -0.377994, -0.075618, 0.044428, -0.359693, -0.311378, -0.051562, 0.198838, 0.047651, -0.303020, 0.073843, -0.215219, 0.001728, -0.448004, -0.009146, -0.322487, -0.369869, 0.199774, 0.010089, -0.222153, -0.021338, 0.215505, 0.248541, -0.058990, -0.334108, -0.135887, -0.341251, -0.367403, 0.335729, 0.091336, 0.063274, -0.030927, -0.235769, 0.583889, -0.222865, -0.326725, 0.006789, 0.026450, -0.324313, -0.073516, 0.308793, -0.231225, 0.287797, -0.300020, 0.034558, 0.146966, -0.156749, -0.562036, 0.111469, 0.288896, 0.071951, 0.160481, 0.034613, 0.206878, -0.124143, -0.171373, 0.021197, -0.181156, -0.499950, -0.544793, -0.067191, -0.285953, 0.671389, 0.051396, -0.209885, -0.077495, 0.023188, 0.092507, 0.103786, -0.107874, 0.188670, 0.035422, 0.038323, 0.306447, -0.059985, 0.169006, -0.260708, -0.212894, 0.078957, -0.404664, 0.125283, -0.388327, -0.017353, -0.311289, -0.019018, -0.093693, 0.326821, 0.033430, -0.004231, -0.192086},
    {-0.256913, -0.188841, 0.085354, 0.053077, -0.284269, 0.019773, -0.122818, 0.000793, 0.135074, -0.275166, 0.052017, 0.259150, 0.379181, -0.480734, 0.246751, 0.003984, -0.070417, 0.033617, -0.003175, -0.051045, -0.093279, -0.230728, -0.174339, 0.175091, -0.028757, -0.082704, -0.141082, -0.274494, -0.248824, 0.154128, -0.432682, 0.187233, 0.048448, 0.167276, -0.112207, -0.064800, 0.127760, -0.075751, -0.006285, -0.228991, -0.257909, 0.342188, -0.197233, -0.116198, 0.099982, 0.136449, 0.336079, -0.406321, 0.097770, -0.244835, 0.201179, -0.077833, 0.060134, -0.223827, -0.132974, -0.000210, 0.219267, -0.425528, 0.127638, 0.270378, 0.050913, -0.075428, -0.281373, -0.022373, -0.259943, -0.336761, 0.303454, 0.123307, 0.006313, -0.044495, -0.204462, 0.535453, -0.084535, -0.304086, -0.076681, -0.153160, -0.367477, -0.076760, 0.214626, -0.131728, 0.183288, -0.070694, 0.108395, 0.356003, -0.207770, -0.558076, 0.120927, 0.263552, 0.026329, 0.052022, 0.158328, 0.143536, -0.142903, -0.082878, 0.299363, -0.260133, -0.171645, -0.561757, -0.006697, 0.024761, 0.581841, 0.183412, -0.061358, -0.118378, -0.149835, 0.244326, -0.069286, -0.080840, 0.222554, 0.000361, 0.025212, 0.158240, 0.107858, -0.220578, -0.228662, -0.133371, -0.055595, -0.289851, 0.197066, -0.352555, 0.331227, -0.271528, -0.078627, -0.236816, -0.081790, -0.033025, 0.024831, -0.075881},
    {-0.415517, -0.171544, 0.106356, 0.307177, -0.654188, 0.248805, 0.049781, -0.080496, 0.044763, -0.279998, -0.040966, 0.310849, -0.041101, -0.441867, 0.244736, -0.097861, -0.317109, 0.041634, 0.009692, -0.185094, 0.172688, 0.196624, -0.358448, 0.233319, -0.230587, -0.162267, -0.126212, -0.157012, -0.226703, -0.005946, 0.004995, 0.143315, -0.084048, -0.038591, -0.150144, 0.106163, -0.090977, -0.038315, -0.188218, -0.128059, -0.131500, 0.301474, -0.013645, -0.052133, 0.424761, 0.041389, 0.402987, -0.081921, 0.009196, -0.263358, 0.406302, -0.071410, 0.301222, -0.066977, 0.042633, 0.010965, 0.073891, -0.397179, -0.008140, 0.119481, 0.270291, -0.085728, -0.349379, -0.029523, -0.262421, -0.359306, 0.224320, 0.197481, 0.136224, -0.042297, 0.021022, 0.492816, -0.057219, 0.151753, -0.286179, -0.083842, -0.646543, -0.195975, 0.308834, -0.310254, 0.279065, -0.166703, -0.003316, 0.201391, 0.110910, -0.642411, 0.000154, -0.019941, 0.089533, 0.237137, 0.207380, 0.025165, -0.180397, -0.004167, 0.170867, -0.478062, -0.024940, -0.157523, 0.143745, -0.316082, 0.298300, 0.103881, 0.181157, 0.089108, -0.182372, 0.148877, 0.061797, -0.139669, 0.218656, 0.103672, -0.023065, -0.048381, 0.022903, -0.368955, -0.027047, -0.192053, -0.095685, -0.021237, 0.092870, -0.191539, 0.261248, -0.152762, -0.286247, 0.016871, -0.273814, 0.079125, -0.092316, -0.128868},
    {-0.124530, -0.143440, -0.244257, 0.213104, -0.711967, 0.280688, 0.147968, -0.209621, -0.117948, -0.376101, -0.001442, 0.257526, -0.214487, -0.527484, -0.090118, -0.297359, -0.267030, 0.029005, 0.219679, -0.191098, 0.237428, 0.070446, -0.465195, 0.291816, -0.134406, -0.036631, -0.070566, -0.168934, -0.450074, 0.006969, 0.163303, 0.107550, -0.126679, -0.083507, 0.110034, 0.474494, -0.196062, 0.017061, 0.225112, -0.034438, -0.060111, 0.526011, -0.059173, -0.082016, 0.376918, 0.250070, -0.124093, 0.338568, -0.237354, 0.245043, -0.008462, -0.272633, 0.282610, 0.012382, 0.005999, 0.008436, -0.067443, -0.158838, 0.006696, -0.052792, 0.383702, 0.181553, -0.561176, -0.046803, -0.296789, -0.270263, 0.355161, 0.194651, 0.041276, -0.062647, -0.028651, 0.470720, -0.509678, 0.222566, -0.209394, -0.139907, -0.616012, -0.026640, 0.292455, -0.376687, 0.274217, -0.103432, 0.216026, -0.035717, -0.020302, -0.556723, 0.204889, -0.407217, 0.029896, 0.156529, 0.290438, -0.179197, 0.003443, 0.333004, -0.040002, -0.353435, -0.034063, -0.181964, 0.225057, -0.538314, -0.109246, -0.011085, 0.154032, 0.073602, -0.222533, 0.056832, 0.220812, -0.298536, 0.084575, 0.123845, -0.144606, -0.107163, 0.062549, -0.126745, 0.040751, -0.195161, -0.217777, 0.079795, 0.111591, -0.269068, -0.018798, -0.167952, -0.154878, 0.050991, -0.431138, 0.334161, -0.163315, 0.060478},
    {0.014630, 0.004267, -0.118512, 0.426200, -0.559518, 0.185333, -0.331532, 0.043122, -0.232163, -0.259344, 0.006622, 0.111494, -0.235379, -0.421476, -0.129313, 0.150592, -0.057795, -0.045415, 0.114513, -0.049142, -0.023839, 0.033128, -0.529557, 0.229947, 0.276323, 0.120559, 0.097691, 0.077768, -0.246924, -0.189160, 0.054809, 0.281941, 0.079626, -0.247338, -0.078079, 0.413458, -0.052400, -0.012384, 0.206782, -0.049436, 0.011403, 0.332757, -0.125884, -0.201365, 0.257340, 0.236173, -0.098864, 0.341767, -0.312833, 0.205870, -0.088226, -0.063770, 0.218075, -0.081048, 0.108806, -0.115241, -0.228498, -0.151222, 0.187801, -0.035386, 0.151556, 0.276513, -0.645864, -0.041762, -0.438839, -0.143451, 0.052763, 0.178867, 0.096762, -0.147546, 0.099970, 0.348859, -0.356355, 0.093703, -0.161471, -0.321042, -0.221556, 0.047698, 0.338550, -0.236236, -0.009401, -0.168139, 0.027907, -0.269206, -0.195752, -0.659991, 0.277604, -0.298998, -0.126942, -0.120102, 0.243347, -0.050577, 0.078669, 0.088066, -0.021397, -0.349590, -0.161162, -0.195913, 0.141160, -0.566447, -0.242268, -0.184748, 0.105646, 0.027899, -0.138490, -0.027256, 0.390017, -0.205864, -0.051761, -0.005012, 0.003229, 0.039147, 0.128960, -0.008639, 0.006708, -0.189475, -0.287187, 0.004328, -0.094768, -0.509445, -0.167683, -0.039411, -0.181618, -0.185226, -0.354473, 0.364896, -0.303398, 0.211931},
    {0.025048, -0.073014, -0.436658, 0.341128, -0.369966, 0.096960, -0.265601, 0.184693, -0.258620, -0.011801, -0.006439, 0.318249, -0.044978, -0.250608, 0.055684, 0.312127, 0.025629, -0.173897, 0.059584, 0.181153, -0.032459, 0.129610, -0.860238, 0.315817, 0.354811, 0.159402, 0.098542, 0.103076, 0.169054, -0.336363, 0.082407, 0.390236, -0.074768, -0.207970, -0.137862, 0.179056, -0.069996, 0.041282, -0.050643, 0.067050, -0.303472, 0.282511, -0.099674, -0.060012, 0.122849, 0.173708, 0.042960, 0.146978, -0.340499, -0.197575, 0.040524, 0.152927, 0.094752, -0.039480, 0.030545, -0.130996, -0.311846, -0.125322, 0.280029, -0.122456, -0.133363, 0.156961, -0.356854, 0.026541, -0.417021, 0.083345, -0.356883, 0.019903, 0.083916, -0.087372, 0.027406, 0.238124, -0.144555, 0.060062, 0.102320, -0.424929, 0.406803, -0.219824, 0.184317, -0.005205, -0.297057, 0.143053, -0.031256, -0.156422, -0.179298, -0.294134, 0.210295, -0.084641, -0.124401, -0.173686, 0.051590, -0.266694, 0.193718, 0.014551, -0.112828, -0.197338, -0.049634, 0.049889, 0.198611, -0.478557, -0.209981, -0.515013, -0.053668, -0.018929, -0.062561, 0.037507, 0.260420, -0.179381, -0.162674, -0.131321, 0.023108, 0.038921, 0.055779, -0.066759, -0.153911, 0.103760, -0.110199, 0.092151, 0.171632, -0.236013, -0.224697, -0.146742, -0.306719, -0.326203, -0.345843, 0.262810, -0.312161, 0.109653},
    {0.063707, -0.139328, -0.539772, -0.005599, -0.184675, 0.154182, -0.413005, 0.089958, -0.158569, 0.047734, 0.076708, 0.139552, 0.198511, -0.183501, 0.063792, 0.214537, -0.026170, -0.151210, -0.002047, 0.096858, -0.012440, 0.131196, -0.636123, 0.317502, -0.032648, 0.229403, 0.049832, -0.050144, 0.161419, -0.420950, 0.225954, 0.350552, -0.069655, -0.120060, -0.004953, -0.020666, -0.053689, 0.146829, -0.321179, -0.244196, -0.427875, 0.109619, 0.179320, 0.087388, 0.143097, 0.021059, 0.059193, 0.098175, -0.077467, -0.117690, 0.243507, 0.207578, 0.186427, -0.075235, -0.022676, -0.019456, -0.261286, -0.061560, 0.251110, -0.081858, -0.114726, 0.069802, -0.229567, 0.050621, -0.121103, 0.112419, -0.449481, 0.055350, 0.147829, 0.235628, -0.166687, 0.044628, -0.095708, 0.102098, 0.079672, -0.408662, 0.365548, -0.176554, 0.202259, 0.044064, -0.327415, -0.035568, 0.020851, -0.046592, -0.016899, -0.491171, 0.030026, 0.195843, -0.067170, -0.059952, 0.087201, -0.673603, 0.255453, 0.082139, -0.328807, 0.188254, 0.012039, 0.206748, 0.122985, -0.401269, -0.151704, -0.665004, -0.066051, -0.167224, -0.024970, 0.176641, 0.058076, -0.150681, -0.117659, 0.104055, 0.272384, 0.173951, -0.133188, -0.137602, -0.032664, 0.425849, -0.094329, -0.007097, 0.366882, -0.137371, -0.172149, -0.202234, -0.027775, -0.216218, -0.126464, 0.036250, -0.224734, -0.066948},
    {-0.188692, 0.103280, -0.240529, -0.122321, -0.393439, 0.001092, -0.587871, 0.032880, -0.124656, 0.056075, 0.153634, 0.112251, 0.026577, -0.157487, 0.017378, 0.309238, 0.086528, -0.233682, 0.049092, 0.140653, 0.017453, 0.172315, -0.122366, 0.356796, -0.128936, 0.186534, -0.241100, 0.156931, -0.102840, -0.301532, 0.363044, 0.253816, 0.062065, -0.156860, -0.103336, -0.126961, 0.099891, 0.068875, -0.479917, -0.281792, -0.411466, 0.225593, 0.199032, 0.206392, 0.435955, -0.210641, 0.299647, 0.143194, -0.064536, 0.033570, 0.269174, 0.026609, 0.269587, -0.409597, -0.086966, 0.077782, -0.309483, -0.210373, -0.110497, 0.048698, 0.140093, -0.158866, -0.057514, -0.005138, -0.264808, -0.178144, -0.077532, 0.148190, 0.195640, 0.146192, -0.494873, -0.322419, -0.113303, 0.130311, 0.193287, -0.328703, 0.208232, 0.174247, 0.075829, 0.161374, -0.388276, -0.070288, 0.089427, 0.129520, 0.101933, -0.460219, -0.087606, 0.299070, 0.044453, -0.077534, -0.165507, -0.355910, -0.005660, 0.073688, -0.073757, 0.137481, -0.108132, 0.409054, 0.009153, -0.278189, -0.273946, -0.483913, 0.211621, -0.119939, 0.040385, 0.256232, 0.083976, -0.211963, -0.037148, 0.041057, 0.175899, 0.257392, -0.319186, -0.095326, -0.038123, 0.336502, -0.148357, -0.131466, 0.229069, -0.306263, -0.082948, -0.383751, 0.301449, -0.112877, -0.036527, 0.060715, -0.191114, -0.211928},
    {-0.158828, -0.003470, -0.131705, -0.082774, -0.295072, 0.063990, -0.557279, -0.015292, -0.154778, 0.184263, -0.049677, -0.019086, -0.035689, -0.015153, -0.004263, 0.230575, 0.018529, -0.352544, 0.003650, 0.022523, -0.108147, -0.024332, -0.028570, 0.258858, -0.039755, 0.153299, -0.373023, 0.355594, -0.375280, -0.169483, 0.373483, -0.032584, 0.091788, 0.106808, -0.008754, -0.352295, 0.062308, -0.039060, -0.432530, -0.263232, -0.383435, 0.327681, 0.317999, -0.045661, 0.315899, -0.078311, 0.285068, 0.052378, 0.149623, 0.002861, 0.038856, -0.217320, 0.189166, -0.532712, 0.044337, 0.072394, -0.201722, -0.079557, -0.239737, 0.020969, 0.055648, -0.469556, 0.038797, -0.127629, -0.398528, -0.100918, 0.138664, 0.195453, 0.126051, 0.134289, -0.290175, -0.631020, -0.036919, 0.000015, 0.199249, -0.222250, 0.045926, 0.132106, 0.070409, -0.067680, -0.327580, -0.093295, 0.175622, 0.076290, 0.079457, -0.529875, -0.153794, 0.236006, -0.140682, -0.071253, 0.141220, -0.068184, 0.065572, 0.066861, -0.137398, 0.347527, -0.166215, 0.384452, 0.092179, -0.055916, -0.229516, -0.143875, 0.221017, -0.292500, -0.054938, 0.382432, 0.112482, -0.378384, -0.214470, 0.069354, -0.038563, 0.065152, -0.474160, -0.106080, -0.072525, 0.330153, -0.182003, -0.217838, 0.091401, -0.465662, -0.128839, -0.245634, 0.408490, -0.077853, -0.046977, 0.045461, -0.129925, -0.242785},
    {-0.393659, -0.114256, -0.191712, -0.147271, -0.270101, 0.180464, -0.248493, 0.088925, 0.029934, 0.116839, -0.153016, -0.301158, 0.052135, -0.116915, 0.200460, 0.101920, -0.068532, -0.235491, 0.244872, -0.118853, 0.031907, 0.173168, 0.024281, 0.188386, 0.163269, -0.049996, -0.164624, 0.208611, -0.407689, -0.142036, 0.338806, -0.024704, 0.180438, 0.276059, 0.009981, -0.311505, -0.010221, -0.130680, -0.057142, -0.265538, -0.377097, 0.410308, 0.141936, 0.173381, 0.275858, -0.045853, 0.304649, 0.095309, 0.137655, -0.225802, 0.081165, -0.154355, 0.282552, -0.663144, 0.093083, -0.062556, -0.119039, -0.078567, -0.077849, 0.136161, -0.075862, -0.613278, -0.167815, -0.187115, -0.233542, -0.013386, 0.029203, -0.015598, -0.049523, 0.187897, -0.035968, -0.682992, -0.041542, 0.046335, 0.020487, -0.259256, -0.329877, 0.057351, 0.271339, -0.288369, -0.161362, -0.151132, 0.176350, -0.259840, 0.011361, -0.465688, -0.445273, 0.293528, -0.264228, -0.127716, -0.023093, -0.019142, 0.026191, 0.172204, -0.182776, 0.376862, -0.248423, 0.172649, 0.256767, -0.142113, -0.007093, -0.051208, 0.199753, -0.131454, -0.225258, 0.234252, 0.170743, -0.276863, -0.165610, -0.213817, -0.130279, -0.054887, -0.647717, 0.106386, -0.161586, 0.273992, -0.047171, -0.006917, 0.343491, -0.516957, -0.127785, -0.079507, 0.289528, 0.032973, -0.053186, 0.088954, -0.212576, -0.330619},
    {-0.403638, -0.048164, -0.144676, -0.013680, 0.044192, -0.231429, -0.083613, 0.107783, -0.054428, -0.001091, -0.026958, -0.159154, 0.186644, -0.116020, 0.158591, -0.103244, 0.040034, 0.030687, 0.080131, -0.136198, -0.072415, 0.193767, 0.220796, 0.018844, 0.165338, 0.203008, -0.216733, -0.005063, -0.325710, -0.225621, 0.145770, -0.123155, 0.111109, 0.229779, 0.100108, -0.033362, -0.258334, -0.093530, 0.114015, 0.177673, -0.462527, 0.151202, -0.020193, 0.391768, 0.037323, -0.130146, 0.157594, 0.144349, 0.305226, -0.047521, 0.039343, -0.190636, 0.262703, -0.860953, -0.022346, -0.227484, -0.019167, 0.029306, -0.046812, 0.393677, -0.054071, -0.962512, -0.157565, -0.190426, -0.149218, 0.130159, 0.138453, 0.156980, -0.103159, -0.032210, 0.016466, -0.790986, 0.066997, -0.005390, 0.047674, -0.406958, -0.224193, 0.152941, 0.226358, -0.294864, -0.009120, -0.058006, -0.042127, -0.353143, -0.062194, -0.356581, -0.633580, 0.146053, -0.079349, 0.086730, 0.021937, 0.254955, -0.050397, 0.206497, -0.003069, 0.340325, -0.179032, -0.081049, 0.308145, 0.067925, 0.158212, -0.176416, -0.021878, 0.133447, -0.419188, 0.044408, 0.007227, 0.031782, -0.098456, -0.272637, -0.068217, -0.039851, -0.316067, -0.106307, -0.055031, 0.315101, -0.297571, -0.020975, 0.192127, -0.373060, -0.156515, 0.188240, 0.165542, 0.096887, -0.080546, 0.185345, -0.324518, -0.454542},
